svm_type c_svc
kernel_type polynomial
degree 3
gamma 0.125
coef0 0
nr_class 5
total_sv 584
rho -3.23525 1.19235 -6.92288 -2.61299 3.51112 -5.3109 1.00395 -3.41124 -3.29593 4.53608
label 0 1 3 4 5
nr_sv 227 156 48 81 72
SV
0.3473216700354508 0 0 0 51:-1 102:-1 153:-1 204:-1 255:-0.244936 256:-1 257:-1 258:-1 259:-1 260:-1 261:-1 262:-1 263:-1 264:-1 265:-1 266:-1 267:-1 268:-1 269:-1 270:-1 271:-1 272:-1 273:-1 274:-1 275:-1 276:-1 277:-1 278:-1 279:-1 280:-1 281:-1 282:-1 283:-1 284:-1 285:-1 286:-1 287:-1 288:-1 289:-1 290:-1 291:-1 292:-1 293:-1 294:-1 295:-1 296:-1 297:-1 298:-1 299:-1 300:-1 301:-1 302:-1 303:-1 304:-1 305:-1 306:-1 307:-1 308:-1 309:-1 310:-1 311:-1 312:-1 313:-1 314:-1 315:-1 316:-1 317:-1 318:-1 319:-1 320:-1 321:-1 322:-1 323:-1 324:-1 325:-1 326:-1 327:-1 328:-1 329:-1 330:-1 331:-1 332:-1 333:-1 334:-1 335:-1 336:-1 337:-1 338:-1 339:-1 340:-1 341:-1 342:-1 343:-1 344:-1 345:-1 346:-1 347:-1 348:-1 349:-1 350:-1 351:-1 352:-1 353:-1 354:-1 355:-1 356:-1 357:-1 358:-1 359:-1 360:-1 361:-1 362:-1 363:-1 364:-1 365:-1 366:-1 367:-1 368:-1 369:-1 370:-1 371:-1 372:-1 373:-1 374:-1 389:-1 390:-1 391:-1 392:-1 393:-1 394:-1 395:-1 396:-1 397:-1 398:-1 399:-1 400:-1 401:-1 402:-1 403:-1 404:-1 405:-1 406:-1 407:-1 408:-1 409:-1 410:-1 411:-1 412:-1 413:-1 414:-1 415:-1 416:-1 417:-1 418:-1 419:-1 420:-1 421:-1 422:-1 423:-1 424:-1 425:-1 426:-1 427:-1 428:-1 429:-1 430:-1 431:-1 432:-1 433:-1 434:-1 435:-1 436:-1 437:-1 438:-1 439:-1 440:-1 441:-1 442:-1 443:-1 444:-1 445:-1 446:-1 447:-1 448:-1 449:-1 450:-1 451:-1 452:-1 453:-1 454:-1 455:-1 456:-1 457:-1 458:-1 459:-1 460:-1 461:-1 462:-1 463:-1 464:-1 465:-1 466:-1 467:-1 468:-1 469:-1 470:-1 471:-1 472:-1 473:-1 474:-1 475:-1 476:-1 477:-1 478:-1 479:-1 480:-1 481:-1 482:-1 483:-1 484:-1 485:-1 486:-1 487:-1 488:-1 489:-1 490:-1 491:-1 492:-1 493:-1 494:-1 495:-1 496:-1 497:-1 498:-1 499:-1 500:-1 501:-1 502:-1 503:-1 504:-1 505:-1 506:-1 507:-1 508:-1 509:-1 510:-1 511:-1 512:-1 513:-1 514:-1 515:-1 516:-1 517:-1 518:-1 519:-1 520:-1 521:-1 522:-1 523:-1 524:-1 525:-1 526:-1 527:-1 528:-1 529:-1 530:-1 531:-1 532:-1 533:-1 534:-1 535:-1 536:-1 537:-1 538:-1 539:-1 540:-1 541:-1 542:-1 543:-1 544:-1 545:-1 546:-1 547:-1 548:-1 549:-1 550:-1 551:-1 552:-1 553:-1 554:-1 555:-1 556:-1 557:-1 558:-1 559:-1 560:-1 561:-1 562:-1 563:-1 564:-1 565:-1 566:-1 567:-1 568:-1 569:-1 570:-1 571:-1 572:-1 573:-1 574:-1 575:-1 576:-1 577:-1 578:-1 579:-1 580:-1 581:-1 582:-1 583:-1 584:-1 585:-1 586:-1 587:-1 588:-1 589:-1 590:-1 591:-1 592:-1 593:-1 594:-1 595:-1 596:-1 597:-1 598:-1 599:-1 600:-1 601:-1 602:-1 603:-1 604:-1 605:-1 606:-1 607:-1 608:-1 609:-1 610:-1 611:-1 612:-1 613:-1 614:-1 629:-1 630:-1 631:-1 632:-1 633:-1 634:-1 635:-1 636:-1 637:-1 638:-1 639:-1 640:-1 641:-1 642:-1 643:-1 644:-1 645:-1 646:-1 647:-1 648:-1 649:-1 650:-1 651:-1 652:-1 653:-1 654:-1 655:-1 656:-1 657:-1 658:-1 659:-1 660:-1 661:-1 662:-1 663:-1 664:-1 665:-1 666:-1 667:-1 668:-1 669:-1 670:-1 671:-1 672:-1 673:-1 674:-1 675:-1 676:-1 677:-1 678:-1 679:-1 680:-1 681:-1 682:-1 683:-1 684:-1 685:-1 686:-1 687:-1 688:-1 689:-1 690:-1 691:-1 692:-1 693:-1 694:-1 695:-1 696:-1 697:-1 698:-1 699:-1 700:-1 701:-1 702:-1 703:-1 704:-1 705:-1 706:-1 707:-1 708:-1 709:-1 710:-1 711:-1 712:-1 713:-1 714:-1 715:-1 716:-1 717:-1 718:-1 719:-1 720:-1 721:-1 722:-1 723:-1 724:-1 725:-1 726:-1 727:-1 728:-1 729:-1 730:-1 731:-1 732:-1 733:-1 734:-1 735:-1 736:-1 737:-1 738:-1 739:-1 740:-1 741:-1 742:-1 743:-1 744:-1 745:-1 746:-1 747:-1 748:-1 749:-1 750:-1 751:-1 752:-1 753:-1 754:-1 755:-1 756:-1 757:-1 758:-1 777:-1 778:-1 779:-1 780:-1 781:-1 782:-1 783:-1 784:-1 785:-1 786:-1 787:-1 788:-1 789:-1 790:-1 791:-1 792:-1 793:-1 794:-1 795:-1 796:-1 797:-1 798:-1 799:-1 800:-1 801:-1 802:-1 803:-1 804:-1 805:-1 806:-1 807:-1 808:-1 809:-1 810:-1 811:-1 812:-1 813:-1 814:-1 815:-1 816:-1 817:-1 818:-1 819:-1 820:-1 821:-1 822:-1 823:-1 824:-1 825:-1 826:-1 827:-1 828:-1 829:-1 830:-1 831:-1 832:-1 833:-1 834:-1 835:-1 836:-1 837:-1 838:-1 839:-1 840:-1 841:-1 842:-1 843:-1 844:-1 845:-1 846:-1 847:-1 848:-1 849:-1 850:-1 851:-1 852:-1 853:-1 880:-1 881:-1 882:-1 883:-1 884:-1 885:-1 886:-1 887:-1 888:-1 889:-1 890:-1 891:-1 892:-1 893:-1 894:-1 895:-1 896:-1 897:-1 898:-1 899:-1 900:-1 901:-1 902:-1 903:-1 904:-1 905:-1 906:-1 907:-1 908:-1 909:-1 910:-1 911:-1 912:-1 913:-1 914:-1 915:-1 916:-1 917:-1 918:-1 919:-1 920:-1 921:-1 922:-1 923:-1 924:-1 925:-1 926:-1 927:-1 928:-1 929:-1 930:-1 931:-1 932:-1 933:-1 934:-1 935:-1 936:-1 937:-1 938:-1 939:-1 940:-1 941:-1 942:-1 943:-1 944:-1 945:-1 946:-1 947:-1 948:-1 949:-1 950:-1 951:-1 952:-1 953:-1 954:-1 955:-1 956:-1 957:-1 958:-1 959:-1 960:-1 961:-1 962:-1 963:-1 964:-1 965:-1 966:-1 967:-1 968:-1 969:-1 970:-1 971:-1 972:-1 973:-1 974:-1 975:-1 976:-1 977:-1 978:-1 979:-1 980:-1 981:-1 982:-1 983:-1 984:-1 985:-1 986:-1 987:-1 988:-1 989:-1 990:-1 991:-1 992:-1 994:-1 995:-1 997:-1 998:-1 1023:-1 1024:-1 1025:-1 1026:-1 1028:-1 1029:-1 1033:-1 1034:-1 1035:-1 1036:-1 1037:-1 1038:-1 1039:-1 1040:-1 1041:-1 1042:-1 1043:-1 1044:-1 1045:-1 1046:-1 1047:-1 1048:-1 1049:-1 1050:-1 1051:-1 1052:-1 1053:-1 1054:-1 1055:-1 1056:-1 1057:-1 1058:-1 1059:-1 1060:-1 1061:-1 1062:-1 1063:-1 1064:-1 1065:-1 1066:-1 1067:-1 1068:-1 1069:-1 1070:-1 1071:-1 1072:-1 1073:-1 1074:-1 1075:-1 1076:-1 1077:-1 1078:-1 1079:-1 1080:-1 1081:-1 1082:-1 1083:-1 1084:-1 1085:-1 1086:-1 1087:-1 1088:-1 1089:-1 1090:-1 1120:-1 1121:-1 1122:-1 1123:-1 1125:-1 1126:-1 1128:-1 1129:-1 1130:-1 1131:-1 1132:-1 1133:-1 1134:-1 1135:-1 1136:-1 1137:-1 1138:-1 1139:-1 1140:-1 1141:-1 1142:-1 1143:-1 1144:-1 1145:-1 1146:-1 1147:-1 1148:-1 1149:-1 1150:-1 1151:-1 1152:-1 1153:-1 1154:-1 1155:-1 1156:-1 1157:-1 1158:-1 1159:-1 1160:-1 1161:-1 1162:-1 1163:-1 1164:-1 1165:-1 1166:-1 1167:-1 1168:-1 1169:-1 1170:-1 1171:-1 1172:-1 1173:-1 1174:-1 1175:-1 1176:-1 1177:-1 1178:-1 1179:-1 1180:-1 1181:-1 1182:-1 1183:-1 1184:-1 1185:-1 1186:-1 1187:-1 1188:-1 1189:-1 1190:-1 1191:-1 1192:-1 1193:-1 1194:-1 1195:-1 1196:-1 1197:-1 1198:-1 1199:-1 1200:-1 1201:-1 1202:-1 1203:-1 1204:-1 1205:-1 1206:-1 1207:-1 1208:-1 1209:-1 1210:-1 1211:-1 1212:-1 1213:-1 1214:-1 1215:-1 
0 0 0 5.870591236960146e-05 51:-1 102:-1 153:-1 204:-0.666916 255:-0.321056 256:-1 257:-1 258:-1 259:-1 260:-1 261:-1 262:-1 263:-1 264:-1 265:-1 266:-1 267:-1 268:-1 269:-1 270:-1 271:-1 272:-1 273:-1 274:-1 275:-1 276:-1 277:-1 278:-1 279:-1 280:-1 281:-1 282:-1 283:-1 284:-1 285:-1 286:-1 287:-1 288:-1 289:-1 290:-1 291:-1 292:-1 293:-1 294:-1 295:-1 296:-1 297:-1 298:-1 299:-1 300:-1 301:-1 302:-1 303:-1 304:-1 305:-1 306:-1 307:-1 308:-1 309:-1 310:-1 311:-0.9375 312:-0.6 313:-0.575758 314:-0.515152 315:-0.272727 316:-0.257143 317:-0.222222 318:-0.315789 319:-0.333333 320:-0.380952 321:-0.285714 322:-0.318182 323:-0.288889 324:-0.384615 325:-0.433333 326:-0.515152 327:-0.545455 328:-0.587302 329:-1 330:-1 331:-1 332:-1 333:-1 334:-1 335:-1 336:-1 337:-1 338:-1 339:-1 340:-1 341:-1 342:-1 343:-1 344:-1 345:-1 346:-1 347:-1 348:-1 349:-1 350:-1 351:-1 352:-1 353:-1 354:-1 355:-1 356:-1 357:-1 358:-1 359:-1 360:-1 361:-1 362:-1 363:-1 364:-1 365:-1 366:-1 367:-1 368:-1 369:-1 370:-1 371:-1 372:-1 373:-1 374:-1 389:-1 390:-1 391:-1 392:-1 393:-1 394:-1 395:-1 396:-1 397:-1 398:-1 399:-1 400:-1 401:-1 402:-1 403:-1 404:-1 405:-1 406:-1 407:-1 408:-1 409:-1 410:-1 411:-1 412:-1 413:-1 414:-1 415:-1 416:-1 417:-1 418:-1 419:-1 420:-1 421:-1 422:-1 423:-1 424:-1 425:-1 426:-1 427:-1 428:-1 429:-1 430:-1 431:-1 432:-1 433:-1 434:-1 435:-1 436:-1 437:-1 438:-1 439:-1 440:-1 441:-1 442:-1 443:-1 444:-1 445:-1 446:-1 447:-1 448:-1 449:-1 450:-1 451:-1 452:-1 453:-1 454:-1 455:-1 456:-1 457:-1 458:-1 459:-1 460:-1 461:-1 462:-1 463:-1 464:-1 465:-1 466:-1 467:-1 468:-1 469:-1 470:-1 471:-0.783784 472:-0.722222 473:-0.515152 474:-0.393939 475:-0.375 476:-0.241379 477:-0.2 478:-0.266667 479:-0.3125 480:-0.3125 481:-0.3125 482:-0.125 483:-0.0967742 484:-0.0967742 485:-0.172414 486:-0.0666667 487:-0.290323 488:-0.214286 489:-0.2 490:-0.354839 491:-0.666667 492:-0.870968 493:-1 494:-1 495:-1 496:-1 497:-1 498:-1 499:-1 500:-1 501:-1 502:-1 503:-1 504:-1 505:-1 506:-1 507:-1 508:-1 509:-1 510:-1 511:-1 512:-1 513:-1 514:-1 515:-1 516:-1 517:-1 518:-1 519:-1 520:-1 521:-1 522:-1 523:-1 524:-1 525:-1 526:-1 527:-1 528:-1 529:-1 530:-1 531:-1 532:-1 533:-1 534:-1 535:-1 536:-1 537:-1 538:-1 539:-1 540:-1 541:-1 542:-1 543:-1 544:-1 545:-1 546:-1 547:-1 548:-1 549:-1 550:-1 551:-1 552:-1 553:-1 554:-1 555:-1 556:-1 557:-1 558:-1 559:-1 560:-1 561:-1 562:-1 563:-1 564:-1 565:-1 566:-1 567:-1 568:-1 569:-1 570:-1 571:-1 572:-1 573:-1 574:-1 575:-1 576:-1 577:-1 578:-1 579:-1 580:-1 581:-1 582:-1 583:-1 584:-1 585:-1 586:-1 587:-1 588:-1 589:-1 590:-1 591:-1 592:-1 593:-1 594:-1 595:-1 596:-1 597:-1 598:-1 599:-1 600:-1 601:-1 602:-1 603:-1 604:-1 605:-1 606:-1 607:-1 608:-1 609:-1 610:-1 611:-1 612:-1 613:-1 614:-1 629:-1 630:-1 631:-1 632:-1 633:-1 634:-1 635:-1 636:-1 637:-1 638:-1 639:-1 640:-1 641:-1 642:-1 643:-1 644:-1 645:-1 646:-1 647:-1 648:-1 649:-1 650:-1 651:-1 652:-1 653:-1 654:-1 655:-1 656:-1 657:-1 658:-1 659:-1 660:-1 661:-1 662:-1 663:-1 664:-1 665:-1 666:-1 667:-1 668:-1 669:-1 670:-1 671:-1 672:-1 673:-1 674:-1 675:-1 676:-1 677:-1 678:-1 679:-1 680:-1 681:-1 682:-1 683:-1 684:-1 685:-1 686:-1 687:-1 688:-1 689:-1 690:-1 691:-1 692:-1 693:-1 694:-1 695:-1 696:-1 697:-1 698:-1 699:-1 700:-1 701:-1 702:-1 703:-1 704:-1 705:-1 706:-1 707:-1 708:-1 709:-1 710:-1 711:-1 712:-1 713:-1 714:-1 715:-1 716:-1 717:-1 718:-1 719:-1 720:-1 721:-1 722:-1 723:-1 724:-1 725:-1 726:-1 727:-1 728:-1 729:-1 730:-1 731:-1 732:-1 733:-1 734:-1 735:-1 736:-1 737:-1 738:-1 739:-1 740:-1 741:-1 742:-1 743:-1 744:-1 745:-1 746:-1 747:-1 748:-1 749:-1 750:-1 751:-1 752:-1 753:-1 754:-1 755:-1 756:-1 757:-1 758:-1 777:-1 778:-1 779:-1 780:-1 781:-1 782:-1 783:-1 784:-1 785:-1 786:-1 787:-1 788:-1 789:-1 790:-1 791:-1 792:-1 793:-1 794:-1 795:-1 796:-1 797:-1 798:-1 799:-1 800:-1 801:-1 802:-1 803:-1 804:-1 805:-1 806:-1 807:-1 808:-1 809:-1 810:-1 811:-1 812:-1 813:-1 814:-1 815:-1 816:-1 817:-1 818:-1 819:-1 820:-1 821:-1 822:-1 823:-1 824:-1 825:-1 826:-1 827:-1 828:-1 829:-1 830:-1 831:-1 832:-1 833:-1 834:-1 835:-1 836:-1 837:-1 838:-1 839:-1 840:-1 841:-1 842:-1 843:-1 844:-1 845:-1 846:-1 847:-1 848:-1 849:-1 850:-1 851:-1 852:-1 853:-1 880:-1 881:-1 882:-1 883:-1 884:-1 885:-1 886:-1 887:-1 888:-1 889:-1 890:-1 891:-1 892:-1 893:-1 894:-1 895:-1 896:-1 897:-1 898:-1 899:-1 900:-1 901:-1 902:-1 903:-1 904:-1 905:-1 906:-1 907:-1 908:-1 909:-1 910:-1 911:-1 912:-1 913:-1 914:-1 915:-1 916:-1 917:-1 918:-1 919:-1 920:-1 921:-1 922:-1 923:-1 924:-1 925:-1 926:-1 927:-1 928:-1 929:-1 930:-1 931:-1 932:-1 933:-1 934:-1 935:-1 936:-1 937:-1 938:-1 939:-1 940:-1 941:-1 942:-1 943:-1 944:-1 945:-1 946:-1 947:-1 948:-1 949:-1 950:-1 951:-1 952:-1 953:-1 954:-1 955:-1 956:-1 957:-1 958:-1 959:-1 960:-1 961:-1 962:-1 963:-1 964:-1 965:-1 966:-1 967:-1 968:-1 969:-1 970:-1 971:-1 972:-1 973:-1 974:-1 975:-1 976:-1 977:-1 978:-1 979:-1 980:-1 981:-1 982:-1 983:-1 984:-1 985:-1 986:-1 987:-1 988:-1 989:-1 990:-1 991:-1 992:-1 994:-1 995:-1 997:-1 998:-1 1023:-1 1024:-1 1025:-1 1026:-1 1028:-1 1029:-1 1033:-1 1034:-1 1035:-1 1036:-1 1037:-1 1038:-1 1039:-1 1040:-1 1041:-1 1042:-1 1043:-1 1044:-1 1045:-1 1046:-1 1047:-1 1048:-1 1049:-1 1050:-1 1051:-1 1052:-1 1053:-1 1054:-1 1055:-1 1056:-1 1057:-1 1058:-1 1059:-1 1060:-1 1061:-1 1062:-1 1063:-1 1064:-1 1065:-1 1066:-1 1067:-1 1068:-1 1069:-1 1070:-1 1071:-1 1072:-1 1073:-1 1074:-1 1075:-1 1076:-1 1077:-1 1078:-1 1079:-1 1080:-1 1081:-1 1082:-1 1083:-1 1084:-1 1085:-1 1086:-1 1087:-1 1088:-1 1089:-1 1090:-1 1120:-1 1121:-1 1122:-1 1123:-1 1125:-1 1126:-1 1128:-1 1129:-1 1130:-1 1131:-1 1132:-1 1133:-1 1134:-1 1135:-1 1136:-1 1137:-1 1138:-1 1139:-1 1140:-1 1141:-1 1142:-1 1143:-1 1144:-1 1145:-1 1146:-1 1147:-1 1148:-1 1149:-1 1150:-1 1151:-1 1152:-1 1153:-1 1154:-1 1155:-1 1156:-1 1157:-1 1158:-1 1159:-1 1160:-1 1161:-1 1162:-1 1163:-1 1164:-1 1165:-1 1166:-1 1167:-1 1168:-1 1169:-1 1170:-1 1171:-1 1172:-1 1173:-1 1174:-1 1175:-1 1176:-1 1177:-1 1178:-1 1179:-1 1180:-1 1181:-1 1182:-1 1183:-1 1184:-1 1185:-1 1186:-1 1187:-1 1188:-1 1189:-1 1190:-1 1191:-1 1192:-1 1193:-1 1194:-1 1195:-1 1196:-1 1197:-1 1198:-1 1199:-1 1200:-1 1201:-1 1202:-1 1203:-1 1204:-1 1205:-1 1206:-1 1207:-1 1208:-1 1209:-1 1210:-1 1211:-1 1212:-1 1213:-1 1214:-1 1215:-1 
3.416672218445925e-05 0 0 0 51:-0.573946 102:-0.729977 153:-0.860606 204:-0.949216 255:-0.362799 256:-1 257:-1 258:-1 259:-1 260:-1 261:-1 262:-1 263:-1 264:-1 265:-1 266:-1 267:-1 268:-1 269:-1 270:-1 271:-1 272:-1 273:-1 274:-1 275:-1 276:-1 277:-1 278:-1 279:-1 280:-1 281:-1 282:-1 283:-1 284:-1 285:-1 286:-1 287:-1 288:-1 289:-1 290:-1 291:-1 292:-1 293:-1 294:-1 295:-1 296:-1 297:-1 298:-1 299:-1 300:-1 301:-1 302:-1 303:-1 304:-0.916667 305:-0.407407 306:0.0344828 307:-0.0344828 308:-0.0666667 309:0.483871 310:0.5 311:0.25 312:0.466667 313:0.393939 314:0.333333 315:0.515152 316:0.371429 317:0.444444 318:0.526316 319:0.589744 320:0.380952 321:0.428571 322:0.5 323:0.422222 324:0.230769 325:0.0666667 326:-0.0606061 327:-0.121212 328:-0.047619 329:-0.403509 330:-0.4 331:-0.507246 332:-0.542857 333:-0.611111 334:-0.633803 335:-0.639344 336:-0.681159 337:-0.617647 338:-0.969697 339:-0.633333 340:-0.684211 341:-0.762712 342:-1 343:-1 344:-1 345:-1 346:-1 347:-1 348:-1 349:-1 350:-1 351:-1 352:-1 353:-1 354:-1 355:-1 356:-1 357:-1 358:-1 359:-1 360:-1 361:-1 362:-1 363:-1 364:-1 365:-1 366:-1 367:-1 368:-1 369:-1 370:-1 371:-1 372:-1 373:-1 374:-1 389:-1 390:-1 391:-1 392:-1 393:-1 394:-1 395:-1 396:-1 397:-1 398:-1 399:-1 400:-1 401:-1 402:-1 403:-1 404:-1 405:-1 406:-1 407:-1 408:-1 409:-1 410:-1 411:-1 412:-1 413:-1 414:-1 415:-1 416:-1 417:-1 418:-1 419:-1 420:-1 421:-1 422:-1 423:-1 424:-1 425:-1 426:-1 427:-1 428:-1 429:-1 430:-1 431:-1 432:-1 433:-1 434:-1 435:-1 436:-1 437:-1 438:-1 439:-1 440:-1 441:-1 442:-1 443:-1 444:-1 445:-1 446:-1 447:-1 448:-1 449:-1 450:-1 451:-1 452:-1 453:-1 454:-1 455:-1 456:-1 457:-1 458:-1 459:-1 460:-0.8 461:-0.5 462:-0.421053 463:-0.351351 464:0.0526316 465:0.0526316 466:0.0526316 467:0.176471 468:0.1875 469:0.212121 470:0.179487 471:0.243243 472:0.222222 473:0.333333 474:0.393939 475:0.375 476:0.586207 477:0.266667 478:0.0666667 479:0.25 480:-0.0625 481:0.0625 482:0.25 483:0.612903 484:0.677419 485:0.862069 486:1 487:1 488:0.928571 489:0.733333 490:0.806452 491:0.8 492:0.483871 493:0.586207 494:0.62963 495:0.826087 496:-1 497:-1 498:-1 499:-1 500:-1 501:-1 502:-1 503:-1 504:-1 505:-1 506:-1 507:-1 508:-1 509:-1 510:-1 511:-1 512:-1 513:-1 514:-1 515:-1 516:-1 517:-1 518:-1 519:-1 520:-1 521:-1 522:-1 523:-1 524:-1 525:-1 526:-1 527:-1 528:-1 529:-1 530:-1 531:-1 532:-1 533:-1 534:-1 535:-1 536:-1 537:-1 538:-1 539:-1 540:-1 541:-1 542:-1 543:-1 544:-1 545:-1 546:-1 547:-1 548:-1 549:-1 550:-0.911111 551:-0.698113 552:-0.745455 553:-0.762712 554:-0.728814 555:-0.781818 556:-0.702128 557:-0.695652 558:-0.782609 559:-0.833333 560:-0.764706 561:-0.807692 562:-0.921569 563:-0.88 564:-0.884615 565:-0.875 566:-0.866667 567:-0.904762 568:-0.909091 569:-0.65 570:-0.744681 571:-0.764706 572:-0.803922 573:-0.923077 574:-0.896552 575:-0.931034 576:-0.84 577:-0.88 578:-0.509434 579:-0.968254 580:-0.971014 581:-0.971014 582:-1 583:-1 584:-1 585:-1 586:-1 587:-1 588:-1 589:-1 590:-1 591:-1 592:-1 593:-1 594:-1 595:-1 596:-1 597:-1 598:-1 599:-1 600:-1 601:-1 602:-1 603:-1 604:-1 605:-1 606:-1 607:-1 608:-1 609:-1 610:-1 611:-1 612:-1 613:-1 614:-1 629:-1 630:-1 631:-1 632:-1 633:-1 634:-1 635:-1 636:-1 637:-1 638:-1 639:-1 640:-1 641:-1 642:-1 643:-1 644:-1 645:-1 646:-1 647:-1 648:-1 649:-1 650:-1 651:-1 652:-1 653:-1 654:-1 655:-1 656:-1 657:-1 658:-1 659:-1 660:-1 661:-1 662:-1 663:-1 664:-1 665:-1 666:-1 667:-1 668:-1 669:-1 670:-1 671:-1 672:-1 673:-1 674:-1 675:-1 676:-1 677:-1 678:-1 679:-1 680:-1 681:-1 682:-1 683:-1 684:-1 685:-1 686:-1 687:-1 688:-1 689:-1 690:-1 691:-1 692:-1 693:-1 694:-1 695:-1 696:-1 697:-1 698:-1 699:-1 700:-1 701:-1 702:-1 703:-1 704:-1 705:-1 706:-1 707:-1 708:-1 709:-1 710:-1 711:-0.945946 712:-0.842105 713:-0.771429 714:-0.69697 715:-0.625 716:-0.666667 717:-0.733333 718:-0.407407 719:-0.481481 720:0.333333 721:-0.12 722:-0.52 723:-0.52381 724:-0.619048 725:-0.2 726:-0.578947 727:-0.7 728:-0.6 729:-0.5 730:-0.578947 731:-0.5 732:-0.157895 733:-0.368421 734:-0.5 735:-0.473684 736:-1 737:-1 738:-1 739:-1 740:-1 741:-1 742:-1 743:-1 744:-1 745:-1 746:-1 747:-1 748:-1 749:-1 750:-1 751:-1 752:-1 753:-1 754:-1 755:-1 756:-1 757:-1 758:-1 777:-1 778:-1 779:-1 780:-1 781:-1 782:-1 783:-1 784:-1 785:-1 786:-1 787:-1 788:-1 789:-1 790:-1 791:-1 792:-1 793:-1 794:-1 795:-1 796:-1 797:-1 798:-1 799:-1 800:-1 801:-1 802:-1 803:-1 804:-1 805:-1 806:-1 807:-1 808:-1 809:-0.9 810:-0.904762 811:-0.909091 812:-0.913043 813:-0.904762 814:-1 815:-0.84 816:-0.92 817:-0.916667 818:-0.916667 819:-1 820:-1 821:-1 822:-1 823:-1 824:-1 825:-1 826:-1 827:-1 828:-1 829:-1 830:-1 831:-1 832:-1 833:-1 834:-1 835:-1 836:-1 837:-1 838:-1 839:-1 840:-1 841:-1 842:-1 843:-1 844:-1 845:-1 846:-1 847:-1 848:-1 849:-1 850:-1 851:-1 852:-1 853:-1 880:-1 881:-1 882:-1 883:-1 884:-1 885:-1 886:-1 887:-1 888:-1 889:-1 890:-1 891:-1 892:-1 893:-1 894:-1 895:-1 896:-1 897:-1 898:-1 899:-1 900:-1 901:-1 902:-1 903:-1 904:-1 905:-1 906:-1 907:-1 908:-1 909:-1 910:-1 911:-1 912:-1 913:-1 914:-1 915:-1 916:-1 917:-1 918:-1 919:-1 920:-1 921:-1 922:-1 923:-1 924:-1 925:-1 926:-1 927:-1 928:-1 929:-1 930:-1 931:-1 932:-1 933:-1 934:-1 935:-1 936:-1 937:-1 938:-1 939:-1 940:-1 941:-1 942:-1 943:-1 944:-1 945:-1 946:-1 947:-1 948:-1 949:-1 950:-1 951:-1 952:-1 953:-1 954:-1 955:-1 956:-1 957:-0.538462 958:-0.833333 959:-1 960:-1 961:-0.818182 962:-0.571429 963:-0.555556 964:-1 965:-1 966:-1 967:-1 968:-1 969:-1 970:-1 971:-1 972:-1 973:-1 974:-1 975:-1 976:-1 977:-1 978:-1 979:-1 980:-1 981:-1 982:-1 983:-1 984:-1 985:-1 986:-1 987:-1 988:-1 989:-1 990:-1 991:-1 992:-1 994:-1 995:-1 997:-1 998:-1 1023:-1 1024:-1 1025:-1 1026:-1 1028:-1 1029:-1 1033:-1 1034:-1 1035:-1 1036:-1 1037:-1 1038:-1 1039:-1 1040:-1 1041:-1 1042:-1 1043:-1 1044:-1 1045:-1 1046:-1 1047:-1 1048:-1 1049:-1 1050:-1 1051:-1 1052:-1 1053:-1 1054:-1 1055:-1 1056:-1 1057:-1 1058:-1 1059:-1 1060:-1 1061:-1 1062:-1 1063:-1 1064:-1 1065:-1 1066:-1 1067:-1 1068:-1 1069:-1 1070:-1 1071:-1 1072:-1 1073:-1 1074:-1 1075:-1 1076:-1 1077:-1 1078:-1 1079:-1 1080:-1 1081:-1 1082:-1 1083:-1 1084:-1 1085:-1 1086:-1 1087:-1 1088:-1 1089:-1 1090:-1 1120:-1 1121:-1 1122:-1 1123:-1 1125:-1 1126:-1 1128:-1 1129:-1 1130:-1 1131:-1 1132:-1 1133:-1 1134:-1 1135:-1 1136:-1 1137:-1 1138:-1 1139:-1 1140:-1 1141:-1 1142:-1 1143:-1 1144:-1 1145:-1 1146:-1 1147:-1 1148:-1 1149:-1 1150:-1 1151:-1 1152:-1 1153:-1 1154:-1 1155:-1 1156:-1 1157:-1 1158:-1 1159:-1 1160:-1 1161:-1 1162:-1 1163:-1 1164:-1 1165:-1 1166:-1 1167:-1 1168:-1 1169:-1 1170:-1 1171:-1 1172:-1 1173:-1 1174:-1 1175:-1 1176:-1 1177:-1 1178:-1 1179:-1 1180:-1 1181:-1 1182:-1 1183:-1 1184:-1 1185:-1 1186:-1 1187:-1 1188:-1 1189:-1 1190:-1 1191:-1 1192:-1 1193:-1 1194:-1 1195:-1 1196:-1 1197:-1 1198:-1 1199:-1 1200:-1 1201:-1 1202:-1 1203:-1 1204:-1 1205:-1 1206:-1 1207:-1 1208:-1 1209:-1 1210:-1 1211:-1 1212:-1 1213:-1 1214:-1 1215:-1 
0 0 2.637909094153513e-05 0 51:-0.883525 102:-0.813883 153:-0.974242 204:-0.98357 255:-0.943524 256:-1 257:-1 258:-1 259:-1 260:-1 261:-1 262:-1 263:-1 264:-1 265:-1 266:-1 267:-1 268:-1 269:-1 270:-1 271:-1 272:-1 273:-1 274:-1 275:-1 276:-1 277:-1 278:-1 279:-1 280:-1 281:-1 282:-1 283:-1 284:-1 285:-1 286:-1 287:-1 288:-1 289:-1 290:-1 291:-1 292:-1 293:-1 294:-1 295:-1 296:-1 297:-1 298:-1 299:-1 300:-1 301:-1 302:-1 303:-1 304:-1 305:-1 306:-1 307:-1 308:-1 309:-1 310:-1 311:-1 312:-1 313:-1 314:-1 315:-0.878788 316:-0.657143 317:-0.444444 318:-0.368421 319:-0.538462 320:-0.380952 321:-0.619048 322:-0.636364 323:-0.555556 324:-0.615385 325:-0.7 326:-0.818182 327:-0.878788 328:-0.873016 329:-0.859649 330:-0.833333 331:-0.855072 332:-0.885714 333:-0.916667 334:-0.887324 335:-0.868852 336:-0.884058 337:-0.676471 338:-0.636364 339:-0.6 340:-0.614035 341:-1 342:-0.633333 343:-1 344:-1 345:-1 346:-1 347:-1 348:-1 349:-1 350:-1 351:-1 352:-1 353:-1 354:-1 355:-1 356:-1 357:-1 358:-1 359:-1 360:-1 361:-1 362:-1 363:-1 364:-1 365:-1 366:-1 367:-1 368:-1 369:-1 370:-1 371:-1 372:-1 373:-1 374:-1 389:-1 390:-1 391:-1 392:-1 393:-1 394:-1 395:-1 396:-1 397:-1 398:-1 399:-1 400:-1 401:-1 402:-1 403:-1 404:-1 405:-1 406:-1 407:-1 408:-1 409:-1 410:-1 411:-1 412:-1 413:-1 414:-1 415:-1 416:-1 417:-1 418:-1 419:-1 420:-1 421:-1 422:-1 423:-1 424:-1 425:-1 426:-1 427:-1 428:-1 429:-1 430:-1 431:-1 432:-1 433:-1 434:-1 435:-1 436:-1 437:-1 438:-1 439:-1 440:-1 441:-1 442:-1 443:-1 444:-1 445:-1 446:-1 447:-1 448:-1 449:-1 450:-1 451:-1 452:-1 453:-1 454:-1 455:-1 456:-1 457:-1 458:-1 459:-1 460:-1 461:-1 462:-1 463:-1 464:-1 465:-1 466:-1 467:-1 468:-1 469:-1 470:-1 471:-1 472:-1 473:-1 474:-1 475:-1 476:-1 477:-0.6 478:-0.333333 479:-0.25 480:-0.3125 481:-0.375 482:-0.375 483:-0.16129 484:-0.0967742 485:0.103448 486:0.0666667 487:-0.0967742 488:-0.142857 489:-0.4 490:-0.419355 491:-0.4 492:-0.548387 493:-0.517241 494:-0.333333 495:-0.391304 496:-1 497:-1 498:-1 499:-1 500:-1 501:-1 502:-1 503:-1 504:-1 505:-1 506:-1 507:-1 508:-1 509:-1 510:-1 511:-1 512:-1 513:-1 514:-1 515:-1 516:-1 517:-1 518:-1 519:-1 520:-1 521:-1 522:-1 523:-1 524:-1 525:-1 526:-1 527:-1 528:-1 529:-1 530:-1 531:-1 532:-1 533:-1 534:-1 535:-1 536:-1 537:-1 538:-1 539:-1 540:-1 541:-1 542:-1 543:-1 544:-1 545:-1 546:-1 547:-1 548:-1 549:-1 550:-1 551:-1 552:-1 553:-1 554:-0.898305 555:-0.927273 556:-0.957447 557:-0.913043 558:-0.956522 559:-0.833333 560:-0.960784 561:-1 562:-0.960784 563:-0.92 564:-0.961538 565:-0.958333 566:-0.911111 567:-0.952381 568:-0.954545 569:-0.95 570:-0.957447 571:-1 572:-1 573:-0.923077 574:-0.931034 575:-0.896552 576:-0.96 577:-0.84 578:-0.849057 579:-0.873016 580:-0.884058 581:-0.594203 582:-1 583:-1 584:-1 585:-1 586:-1 587:-1 588:-1 589:-1 590:-1 591:-1 592:-1 593:-1 594:-1 595:-1 596:-1 597:-1 598:-1 599:-1 600:-1 601:-1 602:-1 603:-1 604:-1 605:-1 606:-1 607:-1 608:-1 609:-1 610:-1 611:-1 612:-1 613:-1 614:-1 629:-1 630:-1 631:-1 632:-1 633:-1 634:-1 635:-1 636:-1 637:-1 638:-1 639:-1 640:-1 641:-1 642:-1 643:-1 644:-1 645:-1 646:-1 647:-1 648:-1 649:-1 650:-1 651:-1 652:-1 653:-1 654:-1 655:-1 656:-1 657:-1 658:-1 659:-1 660:-1 661:-1 662:-1 663:-1 664:-1 665:-1 666:-1 667:-1 668:-1 669:-1 670:-1 671:-1 672:-1 673:-1 674:-1 675:-1 676:-1 677:-1 678:-1 679:-1 680:-1 681:-1 682:-1 683:-1 684:-1 685:-1 686:-1 687:-1 688:-1 689:-1 690:-1 691:-1 692:-1 693:-1 694:-1 695:-1 696:-1 697:-1 698:-1 699:-1 700:-1 701:-1 702:-1 703:-1 704:-1 705:-1 706:-1 707:-1 708:-1 709:-1 710:-1 711:-1 712:-1 713:-1 714:-1 715:-1 716:-0.666667 717:-0.8 718:-0.777778 719:-0.851852 720:-0.62963 721:-0.6 722:-0.36 723:-0.238095 724:-0.619048 725:-0.8 726:-0.894737 727:-0.9 728:-0.9 729:-0.7 730:-0.894737 731:-0.9 732:-0.684211 733:-0.684211 734:-0.9 735:-0.684211 736:-1 737:-1 738:-1 739:-1 740:-1 741:-1 742:-1 743:-1 744:-1 745:-1 746:-1 747:-1 748:-1 749:-1 750:-1 751:-1 752:-1 753:-1 754:-1 755:-1 756:-1 757:-1 758:-1 777:-1 778:-1 779:-1 780:-1 781:-1 782:-1 783:-1 784:-1 785:-1 786:-1 787:-1 788:-1 789:-1 790:-1 791:-1 792:-1 793:-1 794:-1 795:-1 796:-0.818182 797:-1 798:-1 799:-1 800:-1 801:-0.75 802:-0.846154 803:-1 804:-1 805:-1 806:-1 807:-1 808:-1 809:-1 810:-1 811:-1 812:-1 813:-1 814:-1 815:-1 816:-1 817:-1 818:-1 819:-1 820:-1 821:-1 822:-1 823:-1 824:-1 825:-1 826:-1 827:-1 828:-1 829:-1 830:-1 831:-1 832:-1 833:-1 834:-1 835:-1 836:-1 837:-1 838:-1 839:-1 840:-1 841:-1 842:-1 843:-1 844:-1 845:-1 846:-1 847:-1 848:-1 849:-1 850:-1 851:-1 852:-1 853:-1 880:-1 881:-1 882:-1 883:-1 884:-1 885:-1 886:-1 887:-1 888:-1 889:-1 890:-1 891:-1 892:-1 893:-1 894:-1 895:-1 896:-1 897:-1 898:-1 899:-1 900:-1 901:-1 902:-1 903:-1 904:-1 905:-1 906:-1 907:-1 908:-1 909:-1 910:-1 911:-1 912:-1 913:-1 914:-1 915:-1 916:-1 917:-1 918:-1 919:-1 920:-1 921:-1 922:-1 923:-1 924:-1 925:-1 926:-1 927:-1 928:-1 929:-1 930:-1 931:-1 932:-1 933:-1 934:-1 935:-1 936:-1 937:-1 938:-1 939:-1 940:-1 941:-1 942:-1 943:-1 944:-1 945:-1 946:-1 947:-1 948:-1 949:-1 950:-1 951:-1 952:-1 953:-1 954:-1 955:-1 956:-1 957:-1 958:-1 959:-1 960:-0.8 961:-0.818182 962:-1 963:-1 964:-1 965:-1 966:-1 967:-1 968:-0.777778 969:-1 970:-1 971:-1 972:-1 973:-1 974:-1 975:-1 976:-1 977:-1 978:-1 979:-1 980:-1 981:-1 982:-1 983:-1 984:-1 985:-1 986:-1 987:-1 988:-1 989:-1 990:-1 991:-1 992:-1 994:-1 995:-1 997:-1 998:-1 1023:-1 1024:-1 1025:-1 1026:-1 1028:-1 1029:-1 1033:-1 1034:-1 1035:-1 1036:-1 1037:-1 1038:-1 1039:-1 1040:-1 1041:-1 1042:-1 1043:-1 1044:-1 1045:-1 1046:-1 1047:-1 1048:-1 1049:-1 1050:-1 1051:-1 1052:-1 1053:-1 1054:-1 1055:-1 1056:-1 1057:-1 1058:-1 1059:-1 1060:-1 1061:-1 1062:-1 1063:-1 1064:-1 1065:-1 1066:-1 1067:-1 1068:-1 1069:-1 1070:-1 1071:-1 1072:-1 1073:-1 1074:-1 1075:-1 1076:-1 1077:-1 1078:-1 1079:-1 1080:-1 1081:-1 1082:-1 1083:-1 1084:-1 1085:-1 1086:-1 1087:-1 1088:-1 1089:-1 1090:-1 1120:-1 1121:-1 1122:-1 1123:-1 1125:-1 1126:-1 1128:-1 1129:-1 1130:-1 1131:-1 1132:-1 1133:-1 1134:-1 1135:-1 1136:-1 1137:-1 1138:-1 1139:-1 1140:-1 1141:-1 1142:-1 1143:-1 1144:-1 1145:-1 1146:-1 1147:-1 1148:-1 1149:-1 1150:-1 1151:-1 1152:-1 1153:-1 1154:-1 1155:-1 1156:-1 1157:-1 1158:-1 1159:-1 1160:-1 1161:-1 1162:-1 1163:-1 1164:-1 1165:-1 1166:-1 1167:-1 1168:-1 1169:-1 1170:-1 1171:-1 1172:-1 1173:-1 1174:-1 1175:-1 1176:-1 1177:-1 1178:-1 1179:-1 1180:-1 1181:-1 1182:-1 1183:-1 1184:-1 1185:-1 1186:-1 1187:-1 1188:-1 1189:-1 1190:-1 1191:-1 1192:-1 1193:-1 1194:-1 1195:-1 1196:-1 1197:-1 1198:-1 1199:-1 1200:-1 1201:-1 1202:-1 1203:-1 1204:-1 1205:-1 1206:-1 1207:-1 1208:-1 1209:-1 1210:-1 1211:-1 1212:-1 1213:-1 1214:-1 1215:-1 
0.0001877126455991033 0 0.0001191005142059514 0 51:-0.977011 102:-0.987796 153:-0.951515 204:-0.970127 255:-0.931246 256:-1 257:-1 258:-1 259:-1 260:-1 261:-1 262:-1 263:-1 264:-1 265:-1 266:-1 267:-1 268:-1 269:-1 270:-1 271:-1 272:-1 273:-1 274:-1 275:-1 276:-1 277:-1 278:-1 279:-1 280:-1 281:-1 282:-1 283:-1 284:-1 285:-1 286:-1 287:-1 288:-1 289:-1 290:-1 291:-1 292:-1 293:-1 294:-1 295:-1 296:-1 297:-1 298:-1 299:-1 300:-1 301:-1 302:-1 303:-1 304:-1 305:-1 306:-1 307:-1 308:-1 309:-1 310:-1 311:-1 312:-1 313:-1 314:-0.818182 315:-0.757576 316:-0.828571 317:-0.611111 318:-0.894737 319:-0.897436 320:-0.952381 321:-0.952381 322:-0.863636 323:-0.866667 324:-0.961538 325:-0.933333 326:-0.939394 327:-0.969697 328:-0.968254 329:-0.929825 330:-0.933333 331:-0.971014 332:-0.971429 333:-0.972222 334:-0.971831 335:-0.934426 336:-1 337:-0.529412 338:-0.969697 339:-1 340:-1 341:-1 342:-1 343:-1 344:-1 345:-1 346:-1 347:-1 348:-1 349:-1 350:-1 351:-1 352:-1 353:-1 354:-1 355:-1 356:-1 357:-1 358:-1 359:-1 360:-1 361:-1 362:-1 363:-1 364:-1 365:-1 366:-1 367:-1 368:-1 369:-1 370:-1 371:-1 372:-1 373:-1 374:-1 389:-1 390:-1 391:-1 392:-1 393:-1 394:-1 395:-1 396:-1 397:-1 398:-1 399:-1 400:-1 401:-1 402:-1 403:-1 404:-1 405:-1 406:-1 407:-1 408:-1 409:-1 410:-1 411:-1 412:-1 413:-1 414:-1 415:-1 416:-1 417:-1 418:-1 419:-1 420:-1 421:-1 422:-1 423:-1 424:-1 425:-1 426:-1 427:-1 428:-1 429:-1 430:-1 431:-1 432:-1 433:-1 434:-1 435:-1 436:-1 437:-1 438:-1 439:-1 440:-1 441:-1 442:-1 443:-1 444:-1 445:-1 446:-1 447:-1 448:-1 449:-1 450:-1 451:-1 452:-1 453:-1 454:-1 455:-1 456:-1 457:-1 458:-1 459:-1 460:-1 461:-1 462:-1 463:-1 464:-1 465:-1 466:-1 467:-1 468:-1 469:-1 470:-1 471:-1 472:-1 473:-1 474:-1 475:-1 476:-0.655172 477:-0.533333 478:-0.6 479:-0.875 480:-0.9375 481:-0.75 482:-0.625 483:-0.548387 484:-0.741935 485:-0.862069 486:-0.933333 487:-0.806452 488:-0.857143 489:-0.8 490:-0.870968 491:-0.933333 492:-0.870968 493:-0.862069 494:-0.851852 495:-0.913043 496:-1 497:-1 498:-1 499:-1 500:-1 501:-1 502:-1 503:-1 504:-1 505:-1 506:-1 507:-1 508:-1 509:-1 510:-1 511:-1 512:-1 513:-1 514:-1 515:-1 516:-1 517:-1 518:-1 519:-1 520:-1 521:-1 522:-1 523:-1 524:-1 525:-1 526:-1 527:-1 528:-1 529:-1 530:-1 531:-1 532:-1 533:-1 534:-1 535:-1 536:-1 537:-1 538:-1 539:-1 540:-1 541:-1 542:-1 543:-1 544:-1 545:-1 546:-1 547:-1 548:-1 549:-1 550:-1 551:-1 552:-1 553:-1 554:-1 555:-1 556:-0.829787 557:-0.956522 558:-0.956522 559:-1 560:-0.960784 561:-0.923077 562:-0.960784 563:-0.92 564:-0.961538 565:-1 566:-0.955556 567:-0.952381 568:-0.954545 569:-1 570:-1 571:-1 572:-1 573:-0.961538 574:-0.965517 575:-1 576:-1 577:-0.96 578:-1 579:-1 580:-1 581:-1 582:-1 583:-1 584:-1 585:-1 586:-1 587:-1 588:-1 589:-1 590:-1 591:-1 592:-1 593:-1 594:-1 595:-1 596:-1 597:-1 598:-1 599:-1 600:-1 601:-1 602:-1 603:-1 604:-1 605:-1 606:-1 607:-1 608:-1 609:-1 610:-1 611:-1 612:-1 613:-1 614:-1 629:-1 630:-1 631:-1 632:-1 633:-1 634:-1 635:-1 636:-1 637:-1 638:-1 639:-1 640:-1 641:-1 642:-1 643:-1 644:-1 645:-1 646:-1 647:-1 648:-1 649:-1 650:-1 651:-1 652:-1 653:-1 654:-1 655:-1 656:-1 657:-1 658:-1 659:-1 660:-1 661:-1 662:-1 663:-1 664:-1 665:-1 666:-1 667:-1 668:-1 669:-1 670:-1 671:-1 672:-1 673:-1 674:-1 675:-1 676:-1 677:-1 678:-1 679:-1 680:-1 681:-1 682:-1 683:-1 684:-1 685:-1 686:-1 687:-1 688:-1 689:-1 690:-1 691:-1 692:-1 693:-1 694:-1 695:-1 696:-1 697:-1 698:-1 699:-1 700:-1 701:-1 702:-1 703:-1 704:-1 705:-1 706:-1 707:-1 708:-1 709:-1 710:-1 711:-1 712:-1 713:-1 714:-1 715:-1 716:-1 717:-0.866667 718:-0.851852 719:-0.703704 720:-0.851852 721:-0.92 722:-0.92 723:-0.809524 724:-1 725:-1 726:-1 727:-1 728:-0.8 729:-1 730:-1 731:-1 732:-1 733:-0.894737 734:-0.9 735:-0.894737 736:-1 737:-1 738:-1 739:-1 740:-1 741:-1 742:-1 743:-1 744:-1 745:-1 746:-1 747:-1 748:-1 749:-1 750:-1 751:-1 752:-1 753:-1 754:-1 755:-1 756:-1 757:-1 758:-1 777:-1 778:-1 779:-1 780:-1 781:-1 782:-1 783:-1 784:-1 785:-1 786:-1 787:-1 788:-1 789:-1 790:-1 791:-1 792:-1 793:-1 794:-1 795:-1 796:-1 797:-1 798:-1 799:-1 800:-1 801:-1 802:-1 803:-1 804:-1 805:-1 806:-1 807:-1 808:-1 809:-1 810:-1 811:-1 812:-1 813:-1 814:-1 815:-1 816:-0.92 817:-1 818:-1 819:-1 820:-1 821:-1 822:-1 823:-1 824:-1 825:-1 826:-1 827:-1 828:-1 829:-1 830:-1 831:-1 832:-1 833:-1 834:-1 835:-1 836:-1 837:-1 838:-1 839:-1 840:-1 841:-1 842:-1 843:-1 844:-1 845:-1 846:-1 847:-1 848:-1 849:-1 850:-1 851:-1 852:-1 853:-1 880:-1 881:-1 882:-1 883:-1 884:-1 885:-1 886:-1 887:-1 888:-1 889:-1 890:-1 891:-1 892:-1 893:-1 894:-1 895:-1 896:-1 897:-1 898:-1 899:-1 900:-1 901:-1 902:-1 903:-1 904:-1 905:-1 906:-1 907:-1 908:-1 909:-1 910:-1 911:-1 912:-1 913:-1 914:-1 915:-1 916:-1 917:-1 918:-1 919:-1 920:-1 921:-1 922:-1 923:-1 924:-1 925:-1 926:-1 927:-1 928:-1 929:-1 930:-1 931:-1 932:-1 933:-1 934:-1 935:-1 936:-1 937:-1 938:-1 939:-1 940:-1 941:-1 942:-1 943:-1 944:-1 945:-1 946:-1 947:-1 948:-1 949:-1 950:-1 951:-1 952:-1 953:-1 954:-1 955:-1 956:-1 957:-1 958:-1 959:-0.833333 960:-1 961:-1 962:-1 963:-1 964:-1 965:-1 966:-1 967:-1 968:-1 969:-1 970:-1 971:-1 972:-1 973:-1 974:-1 975:-1 976:-1 977:-1 978:-1 979:-1 980:-1 981:-1 982:-1 983:-1 984:-1 985:-1 986:-1 987:-1 988:-1 989:-1 990:-1 991:-1 992:-1 994:-1 995:-1 997:-1 998:-1 1023:-1 1024:-1 1025:-1 1026:-1 1028:-1 1029:-1 1033:-1 1034:-1 1035:-1 1036:-1 1037:-1 1038:-1 1039:-1 1040:-1 1041:-1 1042:-1 1043:-1 1044:-1 1045:-1 1046:-1 1047:-1 1048:-1 1049:-1 1050:-1 1051:-1 1052:-1 1053:-1 1054:-1 1055:-1 1056:-1 1057:-1 1058:-1 1059:-1 1060:-1 1061:-1 1062:-1 1063:-1 1064:-1 1065:-1 1066:-1 1067:-1 1068:-1 1069:-1 1070:-1 1071:-1 1072:-1 1073:-1 1074:-1 1075:-1 1076:-1 1077:-1 1078:-1 1079:-1 1080:-1 1081:-1 1082:-1 1083:-1 1084:-1 1085:-1 1086:-1 1087:-1 1088:-1 1089:-1 1090:-1 1120:-1 1121:-1 1122:-1 1123:-1 1125:-1 1126:-1 1128:-1 1129:-1 1130:-1 1131:-1 1132:-1 1133:-1 1134:-1 1135:-1 1136:-1 1137:-1 1138:-1 1139:-1 1140:-1 1141:-1 1142:-1 1143:-1 1144:-1 1145:-1 1146:-1 1147:-1 1148:-1 1149:-1 1150:-1 1151:-1 1152:-1 1153:-1 1154:-1 1155:-1 1156:-1 1157:-1 1158:-1 1159:-1 1160:-1 1161:-1 1162:-1 1163:-1 1164:-1 1165:-1 1166:-1 1167:-1 1168:-1 1169:-1 1170:-1 1171:-1 1172:-1 1173:-1 1174:-1 1175:-1 1176:-1 1177:-1 1178:-1 1179:-1 1180:-1 1181:-1 1182:-1 1183:-1 1184:-1 1185:-1 1186:-1 1187:-1 1188:-1 1189:-1 1190:-1 1191:-1 1192:-1 1193:-1 1194:-1 1195:-1 1196:-1 1197:-1 1198:-1 1199:-1 1200:-1 1201:-1 1202:-1 1203:-1 1204:-1 1205:-1 1206:-1 1207:-1 1208:-1 1209:-1 1210:-1 1211:-1 1212:-1 1213:-1 1214:-1 1215:-1 
4.271316144852222e-05 0 0 0 51:-0.95249 102:-0.97254 153:-0.930303 204:-0.953697 255:-0.981584 256:-1 257:-1 258:-1 259:-1 260:-1 261:-1 262:-1 263:-1 264:-1 265:-1 266:-1 267:-1 268:-1 269:-1 270:-1 271:-1 272:-1 273:-1 274:-1 275:-1 276:-1 277:-1 278:-1 279:-1 280:-1 281:-1 282:-1 283:-1 284:-1 285:-1 286:-1 287:-1 288:-1 289:-1 290:-1 291:-1 292:-1 293:-1 294:-1 295:-1 296:-1 297:-1 298:-1 299:-1 300:-1 301:-1 302:-1 303:-1 304:-1 305:-1 306:-1 307:-1 308:-1 309:-1 310:-1 311:-1 312:-1 313:-1 314:-1 315:-0.878788 316:-0.885714 317:-0.388889 318:-0.684211 319:-0.74359 320:-0.952381 321:-0.857143 322:-0.863636 323:-0.822222 324:-0.884615 325:-0.933333 326:-0.969697 327:-0.969697 328:-0.904762 329:-0.929825 330:-0.933333 331:-0.971014 332:-1 333:-0.972222 334:-0.943662 335:-0.934426 336:-0.971014 337:-0.529412 338:-0.969697 339:-0.6 340:-1 341:-1 342:-1 343:-1 344:-1 345:-1 346:-1 347:-1 348:-1 349:-1 350:-1 351:-1 352:-1 353:-1 354:-1 355:-1 356:-1 357:-1 358:-1 359:-1 360:-1 361:-1 362:-1 363:-1 364:-1 365:-1 366:-1 367:-1 368:-1 369:-1 370:-1 371:-1 372:-1 373:-1 374:-1 389:-1 390:-1 391:-1 392:-1 393:-1 394:-1 395:-1 396:-1 397:-1 398:-1 399:-1 400:-1 401:-1 402:-1 403:-1 404:-1 405:-1 406:-1 407:-1 408:-1 409:-1 410:-1 411:-1 412:-1 413:-1 414:-1 415:-1 416:-1 417:-1 418:-1 419:-1 420:-1 421:-1 422:-1 423:-1 424:-1 425:-1 426:-1 427:-1 428:-1 429:-1 430:-1 431:-1 432:-1 433:-1 434:-1 435:-1 436:-1 437:-1 438:-1 439:-1 440:-1 441:-1 442:-1 443:-1 444:-1 445:-1 446:-1 447:-1 448:-1 449:-1 450:-1 451:-1 452:-1 453:-1 454:-1 455:-1 456:-1 457:-1 458:-1 459:-1 460:-1 461:-1 462:-1 463:-1 464:-1 465:-1 466:-1 467:-1 468:-1 469:-1 470:-1 471:-1 472:-1 473:-1 474:-1 475:-1 476:-0.793103 477:-0.733333 478:-0.8 479:-0.5625 480:-0.875 481:-0.5625 482:-0.8125 483:-0.548387 484:-0.548387 485:-0.517241 486:-0.8 487:-0.806452 488:-0.714286 489:-0.733333 490:-0.741935 491:-0.733333 492:-0.806452 493:-0.793103 494:-0.62963 495:-0.652174 496:-1 497:-1 498:-1 499:-1 500:-1 501:-1 502:-1 503:-1 504:-1 505:-1 506:-1 507:-1 508:-1 509:-1 510:-1 511:-1 512:-1 513:-1 514:-1 515:-1 516:-1 517:-1 518:-1 519:-1 520:-1 521:-1 522:-1 523:-1 524:-1 525:-1 526:-1 527:-1 528:-1 529:-1 530:-1 531:-1 532:-1 533:-1 534:-1 535:-1 536:-1 537:-1 538:-1 539:-1 540:-1 541:-1 542:-1 543:-1 544:-1 545:-1 546:-1 547:-1 548:-1 549:-1 550:-1 551:-1 552:-1 553:-1 554:-1 555:-1 556:-0.829787 557:-0.956522 558:-0.913043 559:-1 560:-0.921569 561:-0.961538 562:-0.960784 563:-0.88 564:-0.923077 565:-1 566:-0.955556 567:-0.904762 568:-0.954545 569:-0.95 570:-0.957447 571:-0.960784 572:-1 573:-0.961538 574:-0.965517 575:-0.965517 576:-0.96 577:-0.92 578:-0.433962 579:-1 580:-1 581:-1 582:-1 583:-1 584:-1 585:-1 586:-1 587:-1 588:-1 589:-1 590:-1 591:-1 592:-1 593:-1 594:-1 595:-1 596:-1 597:-1 598:-1 599:-1 600:-1 601:-1 602:-1 603:-1 604:-1 605:-1 606:-1 607:-1 608:-1 609:-1 610:-1 611:-1 612:-1 613:-1 614:-1 629:-1 630:-1 631:-1 632:-1 633:-1 634:-1 635:-1 636:-1 637:-1 638:-1 639:-1 640:-1 641:-1 642:-1 643:-1 644:-1 645:-1 646:-1 647:-1 648:-1 649:-1 650:-1 651:-1 652:-1 653:-1 654:-1 655:-1 656:-1 657:-1 658:-1 659:-1 660:-1 661:-1 662:-1 663:-1 664:-1 665:-1 666:-1 667:-1 668:-1 669:-1 670:-1 671:-1 672:-1 673:-1 674:-1 675:-1 676:-1 677:-1 678:-1 679:-1 680:-1 681:-1 682:-1 683:-1 684:-1 685:-1 686:-1 687:-1 688:-1 689:-1 690:-1 691:-1 692:-1 693:-1 694:-1 695:-1 696:-1 697:-1 698:-1 699:-1 700:-1 701:-1 702:-1 703:-1 704:-1 705:-1 706:-1 707:-1 708:-1 709:-1 710:-1 711:-1 712:-1 713:-1 714:-1 715:-1 716:-1 717:-0.933333 718:-0.555556 719:-0.703704 720:-0.481481 721:-1 722:-0.76 723:-0.714286 724:-0.52381 725:-0.9 726:-0.894737 727:-0.9 728:-0.9 729:-0.8 730:-0.894737 731:-0.9 732:-0.894737 733:-0.789474 734:-0.8 735:-0.789474 736:-1 737:-1 738:-1 739:-1 740:-1 741:-1 742:-1 743:-1 744:-1 745:-1 746:-1 747:-1 748:-1 749:-1 750:-1 751:-1 752:-1 753:-1 754:-1 755:-1 756:-1 757:-1 758:-1 777:-1 778:-1 779:-1 780:-1 781:-1 782:-1 783:-1 784:-1 785:-1 786:-1 787:-1 788:-1 789:-1 790:-1 791:-1 792:-1 793:-1 794:-1 795:-1 796:-1 797:-1 798:-1 799:-1 800:-1 801:-1 802:-1 803:-1 804:-1 805:-1 806:-1 807:-1 808:-1 809:-1 810:-1 811:-1 812:-1 813:-1 814:-1 815:-1 816:-1 817:-1 818:-1 819:-1 820:-1 821:-1 822:-1 823:-1 824:-1 825:-1 826:-1 827:-1 828:-1 829:-1 830:-1 831:-1 832:-1 833:-1 834:-1 835:-1 836:-1 837:-1 838:-1 839:-1 840:-1 841:-1 842:-1 843:-1 844:-1 845:-1 846:-1 847:-1 848:-1 849:-1 850:-1 851:-1 852:-1 853:-1 880:-1 881:-1 882:-1 883:-1 884:-1 885:-1 886:-1 887:-1 888:-1 889:-1 890:-1 891:-1 892:-1 893:-1 894:-1 895:-1 896:-1 897:-1 898:-1 899:-1 900:-1 901:-1 902:-1 903:-1 904:-1 905:-1 906:-1 907:-1 908:-1 909:-1 910:-1 911:-1 912:-1 913:-1 914:-1 915:-1 916:-1 917:-1 918:-1 919:-1 920:-1 921:-1 922:-1 923:-1 924:-1 925:-1 926:-1 927:-1 928:-1 929:-1 930:-1 931:-1 932:-1 933:-1 934:-1 935:-1 936:-1 937:-1 938:-1 939:-1 940:-1 941:-1 942:-1 943:-1 944:-1 945:-1 946:-1 947:-1 948:-1 949:-1 950:-1 951:-1 952:-1 953:-1 954:-1 955:-1 956:-1 957:-1 958:-1 959:-1 960:-1 961:-1 962:-1 963:-1 964:-1 965:-1 966:-1 967:-1 968:-1 969:-1 970:-1 971:-1 972:-1 973:-1 974:-1 975:-1 976:-1 977:-1 978:-1 979:-1 980:-1 981:-1 982:-1 983:-1 984:-1 985:-1 986:-1 987:-1 988:-1 989:-1 990:-1 991:-1 992:-1 994:-1 995:-1 997:-1 998:-1 1023:-1 1024:-1 1025:-1 1026:-1 1028:-1 1029:-1 1033:-1 1034:-1 1035:-1 1036:-1 1037:-1 1038:-1 1039:-1 1040:-1 1041:-1 1042:-1 1043:-1 1044:-1 1045:-1 1046:-1 1047:-1 1048:-1 1049:-1 1050:-1 1051:-1 1052:-1 1053:-1 1054:-1 1055:-1 1056:-1 1057:-1 1058:-1 1059:-1 1060:-1 1061:-1 1062:-1 1063:-1 1064:-1 1065:-1 1066:-1 1067:-1 1068:-1 1069:-1 1070:-1 1071:-1 1072:-1 1073:-1 1074:-1 1075:-1 1076:-1 1077:-1 1078:-1 1079:-1 1080:-1 1081:-1 1082:-1 1083:-1 1084:-1 1085:-1 1086:-1 1087:-1 1088:-1 1089:-1 1090:-1 1120:-1 1121:-1 1122:-1 1123:-1 1125:-1 1126:-1 1128:-1 1129:-1 1130:-1 1131:-1 1132:-1 1133:-1 1134:-1 1135:-1 1136:-1 1137:-1 1138:-1 1139:-1 1140:-1 1141:-1 1142:-1 1143:-1 1144:-1 1145:-1 1146:-1 1147:-1 1148:-1 1149:-1 1150:-1 1151:-1 1152:-1 1153:-1 1154:-1 1155:-1 1156:-1 1157:-1 1158:-1 1159:-1 1160:-1 1161:-1 1162:-1 1163:-1 1164:-1 1165:-1 1166:-1 1167:-1 1168:-1 1169:-1 1170:-1 1171:-1 1172:-1 1173:-1 1174:-1 1175:-1 1176:-1 1177:-1 1178:-1 1179:-1 1180:-1 1181:-1 1182:-1 1183:-1 1184:-1 1185:-1 1186:-1 1187:-1 1188:-1 1189:-1 1190:-1 1191:-1 1192:-1 1193:-1 1194:-1 1195:-1 1196:-1 1197:-1 1198:-1 1199:-1 1200:-1 1201:-1 1202:-1 1203:-1 1204:-1 1205:-1 1206:-1 1207:-1 1208:-1 1209:-1 1210:-1 1211:-1 1212:-1 1213:-1 1214:-1 1215:-1 
0 0 0.0001152317696630834 0 51:-0.99387 102:-0.995423 153:-0.998485 204:-0.991038 255:-0.898097 256:-1 257:-1 258:-1 259:-1 260:-1 261:-1 262:-1 263:-1 264:-1 265:-1 266:-1 267:-1 268:-1 269:-1 270:-1 271:-1 272:-1 273:-1 274:-1 275:-1 276:-1 277:-1 278:-1 279:-1 280:-1 281:-1 282:-1 283:-1 284:-1 285:-1 286:-1 287:-1 288:-1 289:-1 290:-1 291:-1 292:-1 293:-1 294:-1 295:-1 296:-1 297:-1 298:-1 299:-1 300:-1 301:-1 302:-1 303:-1 304:-1 305:-1 306:-1 307:-1 308:-1 309:-1 310:-1 311:-1 312:-1 313:-1 314:-1 315:-1 316:-1 317:-0.944444 318:-0.736842 319:-0.846154 320:-0.857143 321:-0.952381 322:-0.863636 323:-0.866667 324:-0.884615 325:-0.833333 326:-0.878788 327:-0.969697 328:-0.968254 329:-0.929825 330:-0.966667 331:-0.971014 332:-0.971429 333:-0.944444 334:-0.971831 335:-0.901639 336:-0.971014 337:-0.970588 338:-0.939394 339:-0.966667 340:-0.614035 341:-1 342:-1 343:-1 344:-1 345:-1 346:-1 347:-1 348:-1 349:-1 350:-1 351:-1 352:-1 353:-1 354:-1 355:-1 356:-1 357:-1 358:-1 359:-1 360:-1 361:-1 362:-1 363:-1 364:-1 365:-1 366:-1 367:-1 368:-1 369:-1 370:-1 371:-1 372:-1 373:-1 374:-1 389:-1 390:-1 391:-1 392:-1 393:-1 394:-1 395:-1 396:-1 397:-1 398:-1 399:-1 400:-1 401:-1 402:-1 403:-1 404:-1 405:-1 406:-1 407:-1 408:-1 409:-1 410:-1 411:-1 412:-1 413:-1 414:-1 415:-1 416:-1 417:-1 418:-1 419:-1 420:-1 421:-1 422:-1 423:-1 424:-1 425:-1 426:-1 427:-1 428:-1 429:-1 430:-1 431:-1 432:-1 433:-1 434:-1 435:-1 436:-1 437:-1 438:-1 439:-1 440:-1 441:-1 442:-1 443:-1 444:-1 445:-1 446:-1 447:-1 448:-1 449:-1 450:-1 451:-1 452:-1 453:-1 454:-1 455:-1 456:-1 457:-1 458:-1 459:-1 460:-1 461:-1 462:-1 463:-1 464:-1 465:-1 466:-1 467:-1 468:-1 469:-1 470:-1 471:-1 472:-1 473:-1 474:-1 475:-1 476:-1 477:-1 478:-1 479:-0.6875 480:-0.8125 481:-0.5 482:-0.8125 483:-0.806452 484:-0.741935 485:-0.37931 486:-0.533333 487:-0.741935 488:-0.857143 489:-0.933333 490:-0.935484 491:-0.8 492:-0.870968 493:-0.862069 494:-0.851852 495:-0.913043 496:-1 497:-1 498:-1 499:-1 500:-1 501:-1 502:-1 503:-1 504:-1 505:-1 506:-1 507:-1 508:-1 509:-1 510:-1 511:-1 512:-1 513:-1 514:-1 515:-1 516:-1 517:-1 518:-1 519:-1 520:-1 521:-1 522:-1 523:-1 524:-1 525:-1 526:-1 527:-1 528:-1 529:-1 530:-1 531:-1 532:-1 533:-1 534:-1 535:-1 536:-1 537:-1 538:-1 539:-1 540:-1 541:-1 542:-1 543:-1 544:-1 545:-1 546:-1 547:-1 548:-1 549:-1 550:-1 551:-1 552:-1 553:-1 554:-1 555:-1 556:-1 557:-1 558:-0.956522 559:-0.916667 560:-0.960784 561:-1 562:-1 563:-1 564:-1 565:-1 566:-0.911111 567:-0.952381 568:-0.954545 569:-1 570:-1 571:-1 572:-1 573:-1 574:-0.965517 575:-1 576:-0.96 577:-0.96 578:-0.962264 579:-0.968254 580:-1 581:-1 582:-1 583:-1 584:-1 585:-1 586:-1 587:-1 588:-1 589:-1 590:-1 591:-1 592:-1 593:-1 594:-1 595:-1 596:-1 597:-1 598:-1 599:-1 600:-1 601:-1 602:-1 603:-1 604:-1 605:-1 606:-1 607:-1 608:-1 609:-1 610:-1 611:-1 612:-1 613:-1 614:-1 629:-1 630:-1 631:-1 632:-1 633:-1 634:-1 635:-1 636:-1 637:-1 638:-1 639:-1 640:-1 641:-1 642:-1 643:-1 644:-1 645:-1 646:-1 647:-1 648:-1 649:-1 650:-1 651:-1 652:-1 653:-1 654:-1 655:-1 656:-1 657:-1 658:-1 659:-1 660:-1 661:-1 662:-1 663:-1 664:-1 665:-1 666:-1 667:-1 668:-1 669:-1 670:-1 671:-1 672:-1 673:-1 674:-1 675:-1 676:-1 677:-1 678:-1 679:-1 680:-1 681:-1 682:-1 683:-1 684:-1 685:-1 686:-1 687:-1 688:-1 689:-1 690:-1 691:-1 692:-1 693:-1 694:-1 695:-1 696:-1 697:-1 698:-1 699:-1 700:-1 701:-1 702:-1 703:-1 704:-1 705:-1 706:-1 707:-1 708:-1 709:-1 710:-1 711:-1 712:-1 713:-1 714:-1 715:-1 716:-1 717:-1 718:-1 719:-1 720:-0.777778 721:-1 722:-0.76 723:-0.904762 724:-0.809524 725:-0.9 726:-0.894737 727:-1 728:-1 729:-1 730:-0.894737 731:-1 732:-0.894737 733:-1 734:-1 735:-1 736:-1 737:-1 738:-1 739:-1 740:-1 741:-1 742:-1 743:-1 744:-1 745:-1 746:-1 747:-1 748:-1 749:-1 750:-1 751:-1 752:-1 753:-1 754:-1 755:-1 756:-1 757:-1 758:-1 777:-1 778:-1 779:-1 780:-1 781:-1 782:-1 783:-1 784:-1 785:-1 786:-1 787:-1 788:-1 789:-1 790:-1 791:-1 792:-1 793:-1 794:-1 795:-1 796:-1 797:-1 798:-1 799:-1 800:-1 801:-1 802:-1 803:-1 804:-1 805:-1 806:-1 807:-1 808:-1 809:-1 810:-1 811:-1 812:-1 813:-1 814:-1 815:-1 816:-1 817:-1 818:-1 819:-1 820:-1 821:-1 822:-1 823:-1 824:-1 825:-1 826:-1 827:-1 828:-1 829:-1 830:-1 831:-1 832:-1 833:-1 834:-1 835:-1 836:-1 837:-1 838:-1 839:-1 840:-1 841:-1 842:-1 843:-1 844:-1 845:-1 846:-1 847:-1 848:-1 849:-1 850:-1 851:-1 852:-1 853:-1 880:-1 881:-1 882:-1 883:-1 884:-1 885:-1 886:-1 887:-1 888:-1 889:-1 890:-1 891:-1 892:-1 893:-1 894:-1 895:-1 896:-1 897:-1 898:-1 899:-1 900:-1 901:-1 902:-1 903:-1 904:-1 905:-1 906:-1 907:-1 908:-1 909:-1 910:-1 911:-1 912:-1 913:-1 914:-1 915:-1 916:-1 917:-1 918:-1 919:-1 920:-1 921:-1 922:-1 923:-1 924:-1 925:-1 926:-1 927:-1 928:-1 929:-1 930:-1 931:-1 932:-1 933:-1 934:-1 935:-1 936:-1 937:-1 938:-1 939:-1 940:-1 941:-1 942:-1 943:-1 944:-1 945:-1 946:-1 947:-1 948:-1 949:-1 950:-1 951:-1 952:-1 953:-1 954:-1 955:-1 956:-1 957:-1 958:-1 959:-1 960:-1 961:-1 962:-1 963:-1 964:-1 965:-1 966:-1 967:-1 968:-1 969:-1 970:-1 971:-1 972:-1 973:-1 974:-1 975:-1 976:-1 977:-1 978:-1 979:-1 980:-1 981:-1 982:-1 983:-1 984:-1 985:-1 986:-1 987:-1 988:-1 989:-1 990:-1 991:-1 992:-1 994:-1 995:-1 997:-1 998:-1 1023:-1 1024:-1 1025:-1 1026:-1 1028:-1 1029:-1 1033:-1 1034:-1 1035:-1 1036:-1 1037:-1 1038:-1 1039:-1 1040:-1 1041:-1 1042:-1 1043:-1 1044:-1 1045:-1 1046:-1 1047:-1 1048:-1 1049:-1 1050:-1 1051:-1 1052:-1 1053:-1 1054:-1 1055:-1 1056:-1 1057:-1 1058:-1 1059:-1 1060:-1 1061:-1 1062:-1 1063:-1 1064:-1 1065:-1 1066:-1 1067:-1 1068:-1 1069:-1 1070:-1 1071:-1 1072:-1 1073:-1 1074:-1 1075:-1 1076:-1 1077:-1 1078:-1 1079:-1 1080:-1 1081:-1 1082:-1 1083:-1 1084:-1 1085:-1 1086:-1 1087:-1 1088:-1 1089:-1 1090:-1 1120:-1 1121:-1 1122:-1 1123:-1 1125:-1 1126:-1 1128:-1 1129:-1 1130:-1 1131:-1 1132:-1 1133:-1 1134:-1 1135:-1 1136:-1 1137:-1 1138:-1 1139:-1 1140:-1 1141:-1 1142:-1 1143:-1 1144:-1 1145:-1 1146:-1 1147:-1 1148:-1 1149:-1 1150:-1 1151:-1 1152:-1 1153:-1 1154:-1 1155:-1 1156:-1 1157:-1 1158:-1 1159:-1 1160:-1 1161:-1 1162:-1 1163:-1 1164:-1 1165:-1 1166:-1 1167:-1 1168:-1 1169:-1 1170:-1 1171:-1 1172:-1 1173:-1 1174:-1 1175:-1 1176:-1 1177:-1 1178:-1 1179:-1 1180:-1 1181:-1 1182:-1 1183:-1 1184:-1 1185:-1 1186:-1 1187:-1 1188:-1 1189:-1 1190:-1 1191:-1 1192:-1 1193:-1 1194:-1 1195:-1 1196:-1 1197:-1 1198:-1 1199:-1 1200:-1 1201:-1 1202:-1 1203:-1 1204:-1 1205:-1 1206:-1 1207:-1 1208:-1 1209:-1 1210:-1 1211:-1 1212:-1 1213:-1 1214:-1 1215:-1 
0 0 0.0001435298385782651 0 51:-0.998467 102:-1 153:-0.990909 204:-0.9059 255:-0.818293 256:-1 257:-1 258:-1 259:-1 260:-1 261:-1 262:-1 263:-1 264:-1 265:-1 266:-1 267:-1 268:-1 269:-1 270:-1 271:-1 272:-1 273:-1 274:-1 275:-1 276:-1 277:-1 278:-1 279:-1 280:-1 281:-1 282:-1 283:-1 284:-1 285:-1 286:-1 287:-1 288:-1 289:-1 290:-1 291:-1 292:-1 293:-1 294:-1 295:-1 296:-1 297:-1 298:-1 299:-1 300:-1 301:-1 302:-1 303:-1 304:-1 305:-1 306:-1 307:-1 308:-1 309:-1 310:-1 311:-1 312:-1 313:-1 314:-1 315:-1 316:-1 317:-1 318:-0.736842 319:-0.846154 320:-0.809524 321:-0.952381 322:-0.863636 323:-0.822222 324:-0.846154 325:-0.8 326:-0.818182 327:-0.939394 328:-0.968254 329:-0.964912 330:-0.966667 331:-0.971014 332:-1 333:-0.972222 334:-0.971831 335:-0.934426 336:-0.971014 337:-0.970588 338:-0.969697 339:-0.566667 340:-0.649123 341:-1 342:-1 343:-1 344:-1 345:-1 346:-1 347:-1 348:-1 349:-1 350:-1 351:-1 352:-1 353:-1 354:-1 355:-1 356:-1 357:-1 358:-1 359:-1 360:-1 361:-1 362:-1 363:-1 364:-1 365:-1 366:-1 367:-1 368:-1 369:-1 370:-1 371:-1 372:-1 373:-1 374:-1 389:-1 390:-1 391:-1 392:-1 393:-1 394:-1 395:-1 396:-1 397:-1 398:-1 399:-1 400:-1 401:-1 402:-1 403:-1 404:-1 405:-1 406:-1 407:-1 408:-1 409:-1 410:-1 411:-1 412:-1 413:-1 414:-1 415:-1 416:-1 417:-1 418:-1 419:-1 420:-1 421:-1 422:-1 423:-1 424:-1 425:-1 426:-1 427:-1 428:-1 429:-1 430:-1 431:-1 432:-1 433:-1 434:-1 435:-1 436:-1 437:-1 438:-1 439:-1 440:-1 441:-1 442:-1 443:-1 444:-1 445:-1 446:-1 447:-1 448:-1 449:-1 450:-1 451:-1 452:-1 453:-1 454:-1 455:-1 456:-1 457:-1 458:-1 459:-1 460:-1 461:-1 462:-1 463:-1 464:-1 465:-1 466:-1 467:-1 468:-1 469:-1 470:-1 471:-1 472:-1 473:-1 474:-1 475:-1 476:-1 477:-1 478:-1 479:-0.8125 480:-0.75 481:-0.6875 482:-0.625 483:-0.677419 484:-0.612903 485:-0.37931 486:-0.466667 487:-0.677419 488:-0.785714 489:-0.866667 490:-0.806452 491:-0.8 492:-0.806452 493:-0.862069 494:-0.777778 495:-0.826087 496:-1 497:-1 498:-1 499:-1 500:-1 501:-1 502:-1 503:-1 504:-1 505:-1 506:-1 507:-1 508:-1 509:-1 510:-1 511:-1 512:-1 513:-1 514:-1 515:-1 516:-1 517:-1 518:-1 519:-1 520:-1 521:-1 522:-1 523:-1 524:-1 525:-1 526:-1 527:-1 528:-1 529:-1 530:-1 531:-1 532:-1 533:-1 534:-1 535:-1 536:-1 537:-1 538:-1 539:-1 540:-1 541:-1 542:-1 543:-1 544:-1 545:-1 546:-1 547:-1 548:-1 549:-1 550:-1 551:-1 552:-1 553:-1 554:-1 555:-1 556:-1 557:-1 558:-1 559:-1 560:-0.921569 561:-1 562:-1 563:-1 564:-1 565:-0.958333 566:-1 567:-1 568:-1 569:-1 570:-1 571:-1 572:-1 573:-1 574:-1 575:-1 576:-1 577:-1 578:-0.962264 579:-0.968254 580:-1 581:-1 582:-1 583:-1 584:-1 585:-1 586:-1 587:-1 588:-1 589:-1 590:-1 591:-1 592:-1 593:-1 594:-1 595:-1 596:-1 597:-1 598:-1 599:-1 600:-1 601:-1 602:-1 603:-1 604:-1 605:-1 606:-1 607:-1 608:-1 609:-1 610:-1 611:-1 612:-1 613:-1 614:-1 629:-1 630:-1 631:-1 632:-1 633:-1 634:-1 635:-1 636:-1 637:-1 638:-1 639:-1 640:-1 641:-1 642:-1 643:-1 644:-1 645:-1 646:-1 647:-1 648:-1 649:-1 650:-1 651:-1 652:-1 653:-1 654:-1 655:-1 656:-1 657:-1 658:-1 659:-1 660:-1 661:-1 662:-1 663:-1 664:-1 665:-1 666:-1 667:-1 668:-1 669:-1 670:-1 671:-1 672:-1 673:-1 674:-1 675:-1 676:-1 677:-1 678:-1 679:-1 680:-1 681:-1 682:-1 683:-1 684:-1 685:-1 686:-1 687:-1 688:-1 689:-1 690:-1 691:-1 692:-1 693:-1 694:-1 695:-1 696:-1 697:-1 698:-1 699:-1 700:-1 701:-1 702:-1 703:-1 704:-1 705:-1 706:-1 707:-1 708:-1 709:-1 710:-1 711:-1 712:-1 713:-1 714:-1 715:-1 716:-1 717:-1 718:-1 719:-1 720:-1 721:-1 722:-1 723:-1 724:-0.809524 725:-0.9 726:-1 727:-1 728:-1 729:-1 730:-0.894737 731:-0.9 732:-1 733:-1 734:-1 735:-1 736:-1 737:-1 738:-1 739:-1 740:-1 741:-1 742:-1 743:-1 744:-1 745:-1 746:-1 747:-1 748:-1 749:-1 750:-1 751:-1 752:-1 753:-1 754:-1 755:-1 756:-1 757:-1 758:-1 777:-1 778:-1 779:-1 780:-1 781:-1 782:-1 783:-1 784:-1 785:-1 786:-1 787:-1 788:-1 789:-1 790:-1 791:-1 792:-1 793:-1 794:-1 795:-1 796:-1 797:-1 798:-1 799:-1 800:-1 801:-1 802:-1 803:-1 804:-1 805:-1 806:-1 807:-1 808:-1 809:-0.9 810:-1 811:-1 812:-1 813:-1 814:-1 815:-1 816:-1 817:-1 818:-1 819:-1 820:-0.913043 821:-1 822:-1 823:-1 824:-1 825:-1 826:-1 827:-1 828:-1 829:-1 830:-1 831:-1 832:-1 833:-1 834:-1 835:-1 836:-1 837:-1 838:-1 839:-1 840:-1 841:-1 842:-1 843:-1 844:-1 845:-1 846:-1 847:-1 848:-1 849:-1 850:-1 851:-1 852:-1 853:-1 880:-1 881:-1 882:-1 883:-1 884:-1 885:-1 886:-1 887:-1 888:-1 889:-1 890:-1 891:-1 892:-1 893:-1 894:-1 895:-1 896:-1 897:-1 898:-1 899:-1 900:-1 901:-1 902:-1 903:-1 904:-1 905:-1 906:-1 907:-1 908:-1 909:-1 910:-1 911:-1 912:-1 913:-1 914:-1 915:-1 916:-1 917:-1 918:-1 919:-1 920:-1 921:-1 922:-1 923:-1 924:-1 925:-1 926:-1 927:-1 928:-1 929:-1 930:-1 931:-1 932:-1 933:-1 934:-1 935:-1 936:-1 937:-1 938:-1 939:-1 940:-1 941:-1 942:-1 943:-1 944:-1 945:-1 946:-1 947:-1 948:-1 949:-1 950:-1 951:-1 952:-1 953:-1 954:-1 955:-1 956:-1 957:-1 958:-1 959:-1 960:-0.8 961:-1 962:-1 963:-1 964:-1 965:-0.8 966:-1 967:-1 968:-1 969:-1 970:-1 971:-1 972:-1 973:-1 974:-1 975:-1 976:-1 977:-1 978:-1 979:-1 980:-1 981:-1 982:-1 983:-1 984:-1 985:-1 986:-1 987:-1 988:-1 989:-1 990:-1 991:-1 992:-1 994:-1 995:-1 997:-1 998:-1 1023:-1 1024:-1 1025:-1 1026:-1 1028:-1 1029:-1 1033:-1 1034:-1 1035:-1 1036:-1 1037:-1 1038:-1 1039:-1 1040:-1 1041:-1 1042:-1 1043:-1 1044:-1 1045:-1 1046:-1 1047:-1 1048:-1 1049:-1 1050:-0.818182 1051:-0.8 1052:-0.846154 1053:-1 1054:-1 1055:-1 1056:-1 1057:-1 1058:-1 1059:-1 1060:-1 1061:-1 1062:-1 1063:-1 1064:-1 1065:-1 1066:-1 1067:-1 1068:-1 1069:-1 1070:-1 1071:-1 1072:-1 1073:-1 1074:-1 1075:-1 1076:-1 1077:-1 1078:-1 1079:-1 1080:-1 1081:-1 1082:-1 1083:-1 1084:-1 1085:-1 1086:-1 1087:-1 1088:-1 1089:-1 1090:-1 1120:-1 1121:-1 1122:-1 1123:-1 1125:-1 1126:-1 1128:-1 1129:-1 1130:-1 1131:-1 1132:-1 1133:-1 1134:-1 1135:-1 1136:-1 1137:-1 1138:-1 1139:-1 1140:-1 1141:-1 1142:-1 1143:-1 1144:-1 1145:-1 1146:-1 1147:-1 1148:-1 1149:-1 1150:-1 1151:-1 1152:-1 1153:-1 1154:-1 1155:-1 1156:-1 1157:-1 1158:-1 1159:-1 1160:-1 1161:-1 1162:-1 1163:-1 1164:-1 1165:-1 1166:-1 1167:-1 1168:-1 1169:-1 1170:-1 1171:-1 1172:-1 1173:-1 1174:-1 1175:-1 1176:-1 1177:-1 1178:-1 1179:-1 1180:-1 1181:-1 1182:-1 1183:-1 1184:-1 1185:-1 1186:-1 1187:-1 1188:-1 1189:-1 1190:-1 1191:-1 1192:-1 1193:-1 1194:-1 1195:-1 1196:-1 1197:-1 1198:-1 1199:-1 1200:-0.4 1201:-1 1202:-1 1203:-1 1204:-1 1205:-1 1206:-1 1207:-1 1208:-1 1209:-1 1210:-1 1211:-1 1212:-1 1213:-1 1214:-1 1215:-1 
9.222946341900392e-05 2.764500618124764e-06 0 0 51:-0.577011 102:-0.540809 153:-0.430303 204:-0.402539 255:-0.680786 256:-1 257:-1 258:-1 259:-1 260:-1 261:-1 262:-1 263:-1 264:-1 265:-1 266:-1 267:-1 268:-1 269:-1 270:-1 271:-1 272:-1 273:-1 274:-1 275:-1 276:-1 277:-1 278:-1 279:-1 280:-1 281:-1 282:-1 283:-1 284:-1 285:-1 286:-1 287:-1 288:-1 289:-1 290:-1 291:-1 292:-1 293:-1 294:-1 295:-1 296:-1 297:-1 298:-1 299:-1 300:-1 301:-1 302:-1 303:-1 304:-1 305:-1 306:-1 307:-1 308:-1 309:-1 310:-1 311:-1 312:-1 313:-1 314:-1 315:-1 316:-1 317:-1 318:-1 319:-1 320:-0.904762 321:-0.666667 322:-0.590909 323:-0.555556 324:-0.346154 325:-0.0666667 327:-0.030303 328:0.015873 329:0.298246 330:0.2 331:0.304348 332:0.371429 333:0.333333 334:0.239437 335:0.639344 336:0.42029 337:0.411765 338:0.484848 339:0.533333 340:0.508772 341:-0.220339 342:-0.0333333 343:0.0333333 344:-0.220339 345:-0.298246 346:-0.37931 347:-0.389831 348:-0.464286 349:-1 350:-1 351:-1 352:-1 353:-1 354:-1 355:-1 356:-1 357:-1 358:-1 359:-1 360:-1 361:-1 362:-1 363:-1 364:-1 365:-1 366:-1 367:-1 368:-1 369:-1 370:-1 371:-1 372:-1 373:-1 374:-1 389:-1 390:-1 391:-1 392:-1 393:-1 394:-1 395:-1 396:-1 397:-1 398:-1 399:-1 400:-1 401:-1 402:-1 403:-1 404:-1 405:-1 406:-1 407:-1 408:-1 409:-1 410:-1 411:-1 412:-1 413:-1 414:-1 415:-1 416:-1 417:-1 418:-1 419:-1 420:-1 421:-1 422:-1 423:-1 424:-1 425:-1 426:-1 427:-1 428:-0.955556 429:-0.869565 430:-0.875 431:-0.836735 432:-0.795918 433:-0.836735 434:-0.833333 435:-0.833333 436:-0.8 437:-0.769231 438:-0.807692 439:-0.740741 440:-0.68 441:-0.745455 442:-0.8 443:-0.818182 444:-0.692308 445:-0.62963 446:-0.5 447:-0.215686 448:-0.215686 449:-0.2 450:-0.207547 451:-0.214286 452:-0.230769 453:-0.346154 454:-0.307692 455:-0.333333 456:-0.347826 457:-0.404255 458:-0.409091 459:-0.263158 460:-0.4 461:-0.45 462:-0.578947 463:-0.297297 464:-0.210526 465:-0.368421 466:-0.368421 467:-0.294118 468:-0.25 469:-0.151515 470:-0.025641 471:0.135135 472:0.222222 473:0.212121 474:-0.0909091 476:0.172414 477:0.2 478:0.266667 479:0.3125 480:0.3125 481:0.1875 482:0.25 483:0.0322581 484:0.0322581 485:0.241379 486:0.133333 487:0.0967742 488:0.428571 489:0.266667 490:0.0322581 491:0.0666667 492:-0.16129 493:-0.172414 494:-0.777778 495:-1 496:-1 497:-1 498:-1 499:-1 500:-1 501:-1 502:-1 503:-1 504:-1 505:-1 506:-1 507:-1 508:-1 509:-1 510:-1 511:-1 512:-1 513:-1 514:-1 515:-1 516:-1 517:-1 518:-1 519:-1 520:-1 521:-1 522:-1 523:-1 524:-1 525:-1 526:-1 527:-1 528:-1 529:-1 530:-1 531:-1 532:-1 533:-1 534:-1 535:-1 536:-1 537:-1 538:-1 539:-1 540:-1 541:-1 542:-1 543:-1 544:-1 545:-1 546:-1 547:-1 548:-1 549:-1 550:-1 551:-1 552:-1 553:-1 554:-1 555:-1 556:-1 557:-1 558:-1 559:-1 560:-1 561:-1 562:-1 563:-0.92 564:-0.884615 565:-0.875 566:-0.866667 567:-0.904762 568:-0.818182 569:-0.85 570:-0.744681 571:-0.72549 572:-0.764706 573:-0.576923 574:-0.586207 575:-0.758621 576:-0.8 577:-0.92 578:-0.962264 579:-0.809524 580:-0.826087 581:-0.362319 582:-0.46875 583:-0.321429 584:0.037037 585:0.207547 586:0.259259 587:0.0714286 588:0.185185 589:0.529412 590:0.531915 591:0.137255 592:-0.0612245 594:-0.0666667 595:-0.619048 596:-1 597:-1 598:-1 599:-1 600:-1 601:-1 602:-1 603:-1 604:-1 605:-1 606:-1 607:-1 608:-1 609:-1 610:-1 611:-1 612:-1 613:-1 614:-1 629:-1 630:-1 631:-1 632:-1 633:-1 634:-1 635:-1 636:-1 637:-1 638:-1 639:-1 640:-1 641:-1 642:-1 643:-1 644:-1 645:-1 646:-1 647:-1 648:-1 649:-1 650:-1 651:-1 652:-1 653:-1 654:-1 655:-1 656:-1 657:-1 658:-1 659:-1 660:-1 661:-1 662:-1 663:-1 664:-0.888889 665:-0.837838 666:-0.771429 667:-0.714286 668:-0.72973 669:-0.707317 670:-0.736842 671:-0.74359 672:-0.75 673:-0.772727 674:-0.772727 675:-0.767442 676:-0.813953 677:-0.809524 678:-0.804878 679:-0.75 680:-0.692308 681:-0.512195 682:-0.351351 683:-0.333333 684:-0.52381 685:-0.571429 686:-0.534884 687:-0.6 688:-0.567568 689:-0.485714 690:-0.515152 691:-0.555556 692:-0.619048 693:-0.581395 694:-0.952381 695:-0.741935 696:-0.785714 697:-0.823529 698:-0.818182 699:-0.771429 700:-0.736842 701:-0.777778 702:-0.818182 703:-0.4375 704:-0.0666667 705:-0.0666667 706:0.0322581 707:0.16129 708:-0.212121 709:-0.151515 710:-0.257143 711:-0.459459 712:-0.631579 713:-0.542857 714:-0.636364 715:-0.5625 716:-0.533333 717:-0.533333 718:-0.481481 719:-0.333333 720:-0.407407 721:-0.2 722:-0.44 723:-0.428571 724:-0.047619 725:-0.1 726:0.0526316 727:-0.2 728:-0.7 729:-0.9 730:-0.789474 731:-1 732:-1 733:-1 734:-1 735:-1 736:-1 737:-1 738:-1 739:-1 740:-1 741:-1 742:-1 743:-1 744:-1 745:-1 746:-1 747:-1 748:-1 749:-1 750:-1 751:-1 752:-1 753:-1 754:-1 755:-1 756:-1 757:-1 758:-1 777:-1 778:-1 779:-1 780:-1 781:-1 782:-1 783:-1 784:-1 785:-1 786:-1 787:-1 788:-1 789:-1 790:-1 791:-1 792:-1 793:-1 794:-1 795:-1 796:-1 797:-1 798:-1 799:-1 800:-1 801:-1 802:-1 803:-1 804:-1 805:-1 806:-1 807:-1 808:-1 809:-1 810:-1 811:-1 812:-1 813:-1 814:-1 815:-1 816:-0.92 817:-0.916667 818:-0.833333 819:-0.652174 820:-0.478261 821:-0.28 822:-0.461538 823:-0.25 824:-0.0833333 825:-0.0434783 826:0.238095 827:-0.0909091 829:-0.047619 830:-0.3 831:-0.263158 832:-0.294118 833:-0.666667 834:-1 835:-1 836:-1 837:-1 838:-1 839:-1 840:-1 841:-1 842:-1 843:-1 844:-1 845:-1 846:-1 847:-1 848:-1 849:-1 850:-1 851:-1 852:-1 853:-1 880:-1 881:-1 882:-1 883:-1 884:-1 885:-1 886:-1 887:-1 888:-1 889:-1 890:-1 891:-1 892:-1 893:-1 894:-1 895:-1 896:-1 897:-1 898:-1 899:-1 900:-1 901:-1 902:-1 903:-1 904:-1 905:-1 906:-1 907:-1 908:-1 909:-1 910:-1 911:-1 912:-1 913:-1 914:-1 915:-1 916:-1 917:-1 918:-1 919:-1 920:-1 921:-1 922:-1 923:-1 924:-1 925:-1 926:-1 927:-1 928:-1 929:-1 930:-1 931:-1 932:-1 933:-0.875 934:-0.625 935:-0.375 936:-0.263158 937:-0.0588235 938:0.111111 939:0.111111 940:0.222222 941:0.625 942:0.333333 943:-0.142857 944:-0.411765 945:-0.0666667 946:-0.375 947:-0.333333 948:-0.882353 949:-1 950:-1 951:-1 952:-0.904762 953:-0.826087 954:-0.684211 955:-0.9 956:-0.846154 957:-0.846154 958:-1 959:-1 960:-0.8 961:-1 962:-0.857143 963:-0.111111 964:-1 965:-1 966:-1 967:-1 968:-1 969:-1 970:-1 971:-1 972:-1 973:-1 974:-1 975:-1 976:-1 977:-1 978:-1 979:-1 980:-1 981:-1 982:-1 983:-1 984:-1 985:-1 986:-1 987:-1 988:-1 989:-1 990:-1 991:-1 992:-1 994:-1 995:-1 997:-1 998:-1 1023:-1 1024:-1 1025:-1 1026:-1 1028:-1 1029:-1 1033:-1 1034:-1 1035:-1 1036:-1 1037:-1 1038:-1 1039:-1 1040:-1 1041:-1 1042:-1 1043:-1 1044:-1 1045:-1 1046:-1 1047:-1 1048:-1 1049:-1 1050:-1 1051:-1 1052:-1 1053:-1 1054:-1 1055:-1 1056:-1 1057:-1 1058:-1 1059:-1 1060:-1 1061:-1 1062:-0.888889 1063:-1 1064:-0.882353 1065:-0.882353 1066:-1 1067:-0.857143 1068:-1 1069:-1 1070:-1 1071:-1 1072:-1 1073:-1 1074:-1 1075:-1 1076:-1 1077:-1 1078:-1 1079:-1 1080:-1 1081:-1 1082:-1 1083:-1 1084:-1 1085:-1 1086:-1 1087:-1 1088:-1 1089:-1 1090:-1 1120:-1 1121:-1 1122:-1 1123:-1 1125:-1 1126:-1 1128:-1 1129:-1 1130:-1 1131:-1 1132:-1 1133:-1 1134:-1 1135:-1 1136:-1 1137:-1 1138:-1 1139:-1 1140:-1 1141:-1 1142:-1 1143:-1 1144:-1 1145:-1 1146:-1 1147:-1 1148:-1 1149:-1 1150:-1 1151:-1 1152:-1 1153:-1 1154:-1 1155:-1 1156:-1 1157:-1 1158:-1 1159:-1 1160:-1 1161:-1 1162:-1 1163:-1 1164:-1 1165:-1 1166:-1 1167:-1 1168:-1 1169:-1 1170:-1 1171:-1 1172:-1 1173:-1 1174:-1 1175:-1 1176:-1 1177:-1 1178:-1 1179:-1 1180:-1 1181:-1 1182:-0.5 1183:-1 1184:-0.846154 1185:-1 1186:-1 1187:-1 1188:-1 1189:-1 1190:-1 1191:-1 1192:-1 1193:-1 1194:-1 1195:-1 1196:-1 1197:-1 1198:-1 1199:-1 1200:-1 1201:-1 1202:-1 1203:-1 1204:-1 1205:-1 1206:-1 1207:-1 1208:-1 1209:-1 1210:-1 1211:-1 1212:-1 1213:-1 1214:-1 1215:-1 
0 4.842035947887938e-07 0 0 51:-0.538697 102:-0.476735 153:-0.454545 204:-0.646004 255:-0.86372 256:-1 257:-1 258:-1 259:-1 260:-1 261:-1 262:-1 263:-1 264:-1 265:-1 266:-1 267:-1 268:-1 269:-1 270:-1 271:-1 272:-1 273:-1 274:-1 275:-1 276:-1 277:-1 278:-1 279:-1 280:-1 281:-1 282:-1 283:-1 284:-1 285:-1 286:-1 287:-1 288:-1 289:-1 290:-1 291:-1 292:-1 293:-1 294:-1 295:-1 296:-1 297:-1 298:-1 299:-1 300:-1 301:-1 302:-1 303:-1 304:-1 305:-1 306:-1 307:-1 308:-1 309:-1 310:-1 311:-1 312:-1 313:-1 314:-1 315:-1 316:-1 317:-1 318:-1 319:-1 320:-0.904762 321:-0.666667 322:-0.5 323:-0.466667 324:-0.461538 325:-0.4 326:-0.454545 327:-0.454545 328:-0.396825 329:-0.263158 330:-0.333333 331:-0.449275 332:-0.428571 333:-0.277778 334:-0.126761 335:0.245902 336:0.0434783 337:0.117647 338:0.212121 339:0.4 340:0.54386 341:-0.220339 342:0.0666667 343:0.333333 344:0.389831 345:0.473684 346:0.517241 347:0.389831 348:0.357143 349:-0.259259 350:-0.444444 351:-0.698113 352:-0.787234 353:-0.87234 354:-1 355:-1 356:-1 357:-1 358:-1 359:-1 360:-1 361:-1 362:-1 363:-1 364:-1 365:-1 366:-1 367:-1 368:-1 369:-1 370:-1 371:-1 372:-1 373:-1 374:-1 389:-1 390:-1 391:-1 392:-1 393:-1 394:-1 395:-1 396:-1 397:-1 398:-1 399:-1 400:-1 401:-1 402:-1 403:-1 404:-1 405:-1 406:-1 407:-1 408:-1 409:-1 410:-1 411:-1 412:-1 413:-1 414:-1 415:-1 416:-1 417:-1 418:-1 419:-1 420:-1 421:-1 422:-1 423:-1 424:-0.918367 425:-0.877551 426:-0.829787 427:-0.787234 428:-0.777778 429:-0.73913 430:-0.791667 431:-0.795918 432:-0.795918 433:-0.795918 434:-0.791667 435:-0.791667 436:-0.84 437:-0.846154 438:-0.846154 439:-0.814815 440:-0.76 441:-0.563636 442:-0.44 443:-0.454545 444:-0.346154 445:-0.333333 446:-0.269231 447:-0.294118 448:-0.294118 449:-0.24 450:-0.320755 451:-0.321429 452:-0.269231 453:-0.346154 454:-1 455:-1 456:-1 457:-1 458:-1 459:-1 460:-1 461:-1 462:-1 463:-0.675676 464:-0.526316 465:-0.473684 466:-0.368421 467:-0.294118 468:-0.25 469:-0.151515 470:-0.025641 471:0.135135 472:0.277778 473:0.333333 474:-0.0909091 476:0.172414 477:0.2 478:0.266667 479:0.3125 480:0.3125 481:0.1875 482:0.25 483:0.0322581 484:0.0322581 485:0.241379 486:0.133333 487:0.0967742 488:0.428571 489:0.266667 490:0.0322581 491:0.0666667 492:0.0322581 493:0.241379 494:-0.037037 495:0.478261 496:-1 497:-1 498:-1 499:-1 500:-1 501:-1 502:-1 503:-1 504:-1 505:-1 506:-1 507:-1 508:-1 509:-1 510:-1 511:-1 512:-1 513:-1 514:-1 515:-1 516:-1 517:-1 518:-1 519:-1 520:-1 521:-1 522:-1 523:-1 524:-1 525:-1 526:-1 527:-1 528:-1 529:-1 530:-1 531:-1 532:-1 533:-1 534:-1 535:-1 536:-1 537:-1 538:-1 539:-1 540:-1 541:-1 542:-1 543:-1 544:-1 545:-1 546:-1 547:-1 548:-1 549:-1 550:-1 551:-1 552:-1 553:-1 554:-1 555:-1 556:-1 557:-1 558:-0.869565 559:-0.791667 560:-0.647059 561:-0.576923 562:-0.607843 563:-0.48 564:-0.576923 565:-0.625 566:-0.644444 567:-0.714286 568:-0.727273 569:-0.75 570:-0.702128 571:-0.72549 572:-0.764706 573:-0.769231 574:-0.724138 575:-0.827586 576:-0.84 577:-0.96 578:-0.849057 579:-0.809524 580:-0.797101 581:-0.42029 582:-0.59375 583:-0.571429 584:-0.518519 585:-0.509434 586:-0.518519 587:-0.535714 588:-0.37037 589:0.137255 590:0.191489 591:0.0980392 592:-0.0204082 594:-0.0666667 595:-0.619048 596:-1 597:-1 598:-1 599:-1 600:-1 601:-1 602:-1 603:-1 604:-1 605:-1 606:-1 607:-1 608:-1 609:-1 610:-1 611:-1 612:-1 613:-1 614:-1 629:-1 630:-1 631:-1 632:-1 633:-1 634:-1 635:-1 636:-1 637:-1 638:-1 639:-1 640:-1 641:-1 642:-1 643:-1 644:-1 645:-1 646:-1 647:-1 648:-1 649:-1 650:-1 651:-1 652:-1 653:-1 654:-1 655:-1 656:-1 657:-1 658:-1 659:-1 660:-1 661:-1 662:-1 663:-1 664:-1 665:-1 666:-1 667:-1 668:-1 669:-1 670:-1 671:-1 672:-1 673:-1 674:-1 675:-1 676:-1 677:-1 678:-1 679:-1 680:-1 681:-1 682:-1 683:-1 684:-1 685:-1 686:-1 687:-1 688:-1 689:-1 690:-1 691:-1 692:-1 693:-0.906977 694:-0.809524 695:-0.419355 696:-0.285714 697:-0.352941 698:-0.212121 699:-0.2 700:-0.157895 701:-0.0555556 702:-0.0909091 703:-0.25 704:-0.266667 705:-0.266667 706:-0.290323 707:-0.16129 708:-0.212121 709:-0.151515 710:-0.0857143 711:-0.351351 712:-0.315789 713:-0.2 714:-0.151515 715:0.1875 716:0.133333 717:-0.0666667 718:-0.185185 719:-0.185185 720:-0.259259 721:0.04 722:-0.2 723:-0.238095 724:0.142857 725:0.1 726:0.157895 727:-0.1 728:-0.7 729:-0.9 730:-0.789474 731:-1 732:-0.894737 733:-1 734:-0.6 735:-1 736:-1 737:-1 738:-1 739:-1 740:-1 741:-1 742:-1 743:-1 744:-1 745:-1 746:-1 747:-1 748:-1 749:-1 750:-1 751:-1 752:-1 753:-1 754:-1 755:-1 756:-1 757:-1 758:-1 777:-1 778:-1 779:-1 780:-1 781:-1 782:-1 783:-1 784:-1 785:-1 786:-1 787:-1 788:-1 789:-1 790:-1 791:-1 792:-1 793:-1 794:-1 795:-1 796:-1 797:-1 798:-1 799:-1 800:-1 801:-1 802:-1 803:-1 804:-0.714286 805:-1 806:-0.846154 807:-0.733333 808:-0.875 809:-0.9 810:-0.904762 811:-0.727273 812:-0.73913 813:-0.714286 814:-0.818182 815:-0.84 816:-0.68 817:-0.666667 818:-0.916667 819:-1 820:-1 821:-0.76 822:-0.846154 823:-0.916667 824:-0.666667 825:-0.652174 826:-0.714286 827:-0.818182 828:-1 829:-1 830:-1 831:-1 832:-1 833:-1 834:-1 835:-1 836:-1 837:-1 838:-1 839:-1 840:-1 841:-1 842:-1 843:-1 844:-1 845:-1 846:-1 847:-1 848:-1 849:-1 850:-1 851:-1 852:-1 853:-1 880:-1 881:-1 882:-1 883:-1 884:-1 885:-1 886:-1 887:-1 888:-1 889:-1 890:-1 891:-1 892:-1 893:-1 894:-1 895:-1 896:-1 897:-1 898:-1 899:-1 900:-1 901:-1 902:-1 903:-1 904:-1 905:-1 906:-1 907:-1 908:-1 909:-1 910:-1 911:-1 912:-1 913:-1 914:-1 915:-1 916:-1 917:-1 918:-1 919:-1 920:-1 921:-1 922:-1 923:-1 924:-1 925:-1 926:-1 927:-1 928:-1 929:-1 930:-1 931:-1 932:-1 933:-1 934:-1 935:-1 936:-1 937:-1 938:-1 939:-1 940:-1 941:-1 942:-0.666667 943:-1 944:-0.882353 945:-0.866667 946:-1 947:-1 948:-0.882353 949:-0.6 950:-1 951:-0.857143 952:-0.809524 953:-0.73913 954:-0.157895 955:-0.9 956:-0.846154 957:-0.846154 958:-1 959:-1 960:-0.8 961:-1 962:-0.857143 963:-0.111111 964:-1 965:-1 966:-1 967:-1 968:-1 969:-0.8 970:-0.636364 971:-0.428571 972:-0.571429 973:-0.714286 974:-0.647059 975:-0.777778 976:-1 977:-1 978:-1 979:-1 980:-1 981:-1 982:-1 983:-1 984:-1 985:-1 986:-1 987:-1 988:-1 989:-1 990:-1 991:-1 992:-1 994:-1 995:-1 997:-1 998:-1 1023:-1 1024:-1 1025:-1 1026:-1 1028:-1 1029:-1 1033:-1 1034:-1 1035:-1 1036:-1 1037:-1 1038:-1 1039:-1 1040:-1 1041:-1 1042:-1 1043:-1 1044:-1 1045:-1 1046:-1 1047:-1 1048:-1 1049:-1 1050:-1 1051:-1 1052:-1 1053:-1 1054:-1 1055:-1 1056:-1 1057:-1 1058:-1 1059:-1 1060:-1 1061:-1 1062:-1 1063:-1 1064:-1 1065:-1 1066:-1 1067:-1 1068:-1 1069:-1 1070:-1 1071:-1 1072:-1 1073:-1 1074:-1 1075:-1 1076:-1 1077:-1 1078:-1 1079:-1 1080:-1 1081:-1 1082:-1 1083:-1 1084:-1 1085:-1 1086:-1 1087:-1 1088:-1 1089:-1 1090:-1 1120:-1 1121:-1 1122:-1 1123:-1 1125:-1 1126:-1 1128:-1 1129:-1 1130:-1 1131:-1 1132:-1 1133:-1 1134:-1 1135:-1 1136:-1 1137:-1 1138:-1 1139:-1 1140:-1 1141:-1 1142:-1 1143:-1 1144:-1 1145:-1 1146:-1 1147:-1 1148:-1 1149:-1 1150:-1 1151:-1 1152:-1 1153:-1 1154:-1 1155:-1 1156:-1 1157:-1 1158:-1 1159:-1 1160:-1 1161:-1 1162:-1 1163:-1 1164:-1 1165:-1 1166:-1 1167:-1 1168:-1 1169:-1 1170:-1 1171:-1 1172:-1 1173:-1 1174:-1 1175:-1 1176:-1 1177:-1 1178:-1 1179:-1 1180:-1 1181:-1 1182:-1 1183:-1 1184:-1 1185:-1 1186:-1 1187:-1 1188:-1 1189:-1 1190:-1 1191:-1 1192:-1 1193:-1 1194:-1 1195:-1 1196:-1 1197:-1 1198:-1 1199:-1 1200:-1 1201:-1 1202:-1 1203:-1 1204:-1 1205:-1 1206:-1 1207:-1 1208:-1 1209:-1 1210:-1 1211:-1 1212:-1 1213:-1 1214:-1 1215:-1 
4.758649964280453e-05 0 0 0 51:-0.958621 102:-0.932876 153:-0.963636 204:-0.928305 255:-0.769184 256:-1 257:-1 258:-1 259:-1 260:-1 261:-1 262:-1 263:-1 264:-1 265:-1 266:-1 267:-1 268:-1 269:-1 270:-1 271:-1 272:-1 273:-1 274:-1 275:-1 276:-1 277:-1 278:-1 279:-1 280:-1 281:-1 282:-1 283:-1 284:-1 285:-1 286:-1 287:-1 288:-1 289:-1 290:-1 291:-1 292:-1 293:-1 294:-1 295:-1 296:-1 297:-1 298:-1 299:-1 300:-1 301:-1 302:-1 303:-1 304:-1 305:-1 306:-1 307:-1 308:-1 309:-1 310:-1 311:-1 312:-1 313:-1 314:-1 315:-1 316:-1 317:-1 318:-1 319:-1 320:-0.952381 321:-0.904762 322:-0.909091 323:-0.911111 324:-0.884615 325:-0.866667 326:-0.939394 327:-0.878788 328:-0.84127 329:-0.789474 330:-0.933333 331:-0.884058 332:-0.885714 333:-0.944444 334:-0.802817 335:-0.737705 336:-0.797101 337:-0.823529 338:-0.727273 339:-0.5 340:-0.54386 341:-0.728814 342:-0.8 343:-1 344:-1 345:-1 346:-1 347:-1 348:-1 349:-1 350:-1 351:-1 352:-1 353:-1 354:-1 355:-1 356:-1 357:-1 358:-1 359:-1 360:-1 361:-1 362:-1 363:-1 364:-1 365:-1 366:-1 367:-1 368:-1 369:-1 370:-1 371:-1 372:-1 373:-1 374:-1 389:-1 390:-1 391:-1 392:-1 393:-1 394:-1 395:-1 396:-1 397:-1 398:-1 399:-1 400:-1 401:-1 402:-1 403:-1 404:-1 405:-1 406:-1 407:-1 408:-1 409:-1 410:-1 411:-1 412:-1 413:-1 414:-1 415:-1 416:-1 417:-1 418:-1 419:-1 420:-1 421:-1 422:-1 423:-1 424:-1 425:-1 426:-1 427:-1 428:-1 429:-1 430:-1 431:-1 432:-1 433:-1 434:-1 435:-1 436:-1 437:-1 438:-1 439:-1 440:-1 441:-1 442:-1 443:-1 444:-1 445:-1 446:-1 447:-1 448:-1 449:-1 450:-1 451:-1 452:-0.961538 453:-0.961538 454:-0.884615 455:-0.843137 456:-0.782609 457:-0.787234 458:-0.818182 459:-0.736842 460:-0.7 461:-0.8 462:-0.631579 463:-0.783784 464:-0.526316 465:-0.736842 466:-0.894737 467:-0.764706 468:-0.5 469:-0.69697 470:-0.846154 471:-0.837838 472:-0.611111 473:-0.818182 474:-0.818182 475:-0.6875 476:-0.586207 477:-0.8 478:-0.866667 479:-0.75 480:-0.9375 481:-1 482:-1 483:-1 484:-1 485:-1 486:-1 487:-1 488:-1 489:-1 490:-1 491:-1 492:-1 493:-1 494:-1 495:-1 496:-1 497:-1 498:-1 499:-1 500:-1 501:-1 502:-1 503:-1 504:-1 505:-1 506:-1 507:-1 508:-1 509:-1 510:-1 511:-1 512:-1 513:-1 514:-1 515:-1 516:-1 517:-1 518:-1 519:-1 520:-1 521:-1 522:-1 523:-1 524:-1 525:-1 526:-1 527:-1 528:-1 529:-1 530:-1 531:-1 532:-1 533:-1 534:-1 535:-1 536:-1 537:-1 538:-1 539:-1 540:-1 541:-1 542:-1 543:-1 544:-1 545:-1 546:-1 547:-1 548:-1 549:-1 550:-1 551:-1 552:-1 553:-1 554:-1 555:-1 556:-1 557:-1 558:-1 559:-1 560:-0.882353 561:-0.884615 562:-0.960784 563:-0.76 564:-0.807692 565:-0.916667 566:-0.777778 567:-0.857143 568:-0.818182 569:-0.85 570:-0.829787 571:-0.882353 572:-0.921569 573:-0.923077 574:-0.896552 575:-0.827586 576:-0.84 577:-0.6 578:-0.622642 579:-0.777778 580:-0.884058 581:-0.768116 582:-0.90625 583:-1 584:-1 585:-1 586:-1 587:-1 588:-1 589:-1 590:-1 591:-1 592:-1 593:-1 594:-1 595:-1 596:-1 597:-1 598:-1 599:-1 600:-1 601:-1 602:-1 603:-1 604:-1 605:-1 606:-1 607:-1 608:-1 609:-1 610:-1 611:-1 612:-1 613:-1 614:-1 629:-1 630:-1 631:-1 632:-1 633:-1 634:-1 635:-1 636:-1 637:-1 638:-1 639:-1 640:-1 641:-1 642:-1 643:-1 644:-1 645:-1 646:-1 647:-1 648:-1 649:-1 650:-1 651:-1 652:-1 653:-1 654:-1 655:-1 656:-1 657:-1 658:-1 659:-1 660:-1 661:-1 662:-1 663:-1 664:-1 665:-1 666:-1 667:-1 668:-1 669:-1 670:-1 671:-1 672:-1 673:-1 674:-1 675:-1 676:-1 677:-1 678:-1 679:-1 680:-1 681:-1 682:-1 683:-1 684:-1 685:-1 686:-1 687:-1 688:-1 689:-1 690:-1 691:-0.944444 692:-1 693:-0.813953 694:-0.904762 695:-0.548387 696:-0.714286 697:-0.882353 698:-0.69697 699:-0.771429 700:-0.736842 701:-0.888889 702:-0.939394 703:-0.8125 704:-0.733333 705:-0.666667 706:-0.612903 707:-0.806452 708:-0.757576 709:-0.69697 710:-0.657143 711:-0.72973 712:-0.894737 713:-0.771429 714:-0.818182 715:-0.875 716:-0.866667 717:-0.8 718:-0.777778 719:-0.925926 720:-0.851852 721:-1 722:-1 723:-1 724:-1 725:-1 726:-1 727:-1 728:-1 729:-1 730:-1 731:-1 732:-1 733:-1 734:-1 735:-1 736:-1 737:-1 738:-1 739:-1 740:-1 741:-1 742:-1 743:-1 744:-1 745:-1 746:-1 747:-1 748:-1 749:-1 750:-1 751:-1 752:-1 753:-1 754:-1 755:-1 756:-1 757:-1 758:-1 777:-1 778:-1 779:-1 780:-1 781:-1 782:-1 783:-1 784:-1 785:-1 786:-1 787:-1 788:-1 789:-1 790:-1 791:-1 792:-1 793:-1 794:-1 795:-1 796:-1 797:-1 798:-1 799:-1 800:-1 801:-0.5 802:-0.846154 803:-1 804:-1 805:-1 806:-1 807:-0.6 808:-0.625 809:-0.8 810:-1 811:-1 812:-0.913043 813:-1 814:-1 815:-1 816:-0.92 817:-0.833333 818:-1 819:-1 820:-1 821:-0.84 822:-1 823:-1 824:-1 825:-1 826:-1 827:-1 828:-1 829:-1 830:-1 831:-1 832:-1 833:-1 834:-1 835:-1 836:-1 837:-1 838:-1 839:-1 840:-1 841:-1 842:-1 843:-1 844:-1 845:-1 846:-1 847:-1 848:-1 849:-1 850:-1 851:-1 852:-1 853:-1 880:-1 881:-1 882:-1 883:-1 884:-1 885:-1 886:-1 887:-1 888:-1 889:-1 890:-1 891:-1 892:-1 893:-1 894:-1 895:-1 896:-1 897:-1 898:-1 899:-1 900:-1 901:-1 902:-1 903:-1 904:-1 905:-1 906:-1 907:-1 908:-1 909:-1 910:-1 911:-1 912:-1 913:-1 914:-1 915:-1 916:-1 917:-1 918:-1 919:-1 920:-1 921:-1 922:-1 923:-1 924:-1 925:-1 926:-1 927:-1 928:-1 929:-1 930:-1 931:-1 932:-1 933:-1 934:-1 935:-1 936:-1 937:-0.882353 938:-0.777778 939:-0.555556 940:-0.888889 941:-0.75 942:-1 943:-1 944:-1 945:-0.733333 946:-1 947:-1 948:-0.882353 949:-0.866667 950:-1 951:-1 952:-1 953:-1 954:-1 955:-1 956:-1 957:-1 958:-0.833333 959:-1 960:-0.6 961:-1 962:-1 963:-1 964:-1 965:-1 966:-1 967:-1 968:-1 969:-1 970:-1 971:-1 972:-1 973:-1 974:-1 975:-1 976:-1 977:-1 978:-1 979:-1 980:-1 981:-1 982:-1 983:-1 984:-1 985:-1 986:-1 987:-1 988:-1 989:-1 990:-1 991:-1 992:-1 994:-1 995:-1 997:-1 998:-1 1023:-1 1024:-1 1025:-1 1026:-1 1028:-1 1029:-1 1033:-1 1034:-1 1035:-1 1036:-1 1037:-1 1038:-1 1039:-1 1040:-1 1041:-1 1042:-1 1043:-1 1044:-1 1045:-1 1046:-0.6 1047:-1 1048:-1 1049:-0.666667 1050:-0.818182 1051:-0.8 1052:-1 1053:-1 1054:-1 1055:-0.857143 1056:-1 1057:-0.846154 1058:-0.866667 1059:-0.866667 1060:-0.866667 1061:-1 1062:-1 1063:-1 1064:-1 1065:-1 1066:-1 1067:-1 1068:-1 1069:-1 1070:-1 1071:-1 1072:-1 1073:-1 1074:-1 1075:-1 1076:-1 1077:-1 1078:-1 1079:-1 1080:-1 1081:-1 1082:-1 1083:-1 1084:-1 1085:-1 1086:-1 1087:-1 1088:-1 1089:-1 1090:-1 1120:-1 1121:-1 1122:-1 1123:-1 1125:-1 1126:-1 1128:-1 1129:-1 1130:-1 1131:-1 1132:-1 1133:-1 1134:-1 1135:-1 1136:-1 1137:-1 1138:-1 1139:-1 1140:-1 1141:-1 1142:-1 1143:-1 1144:-1 1145:-1 1146:-1 1147:-1 1148:-1 1149:-1 1150:-1 1151:-1 1152:-1 1153:-1 1154:-1 1155:-1 1156:-1 1157:-1 1158:-1 1159:-1 1160:-1 1161:-1 1162:-1 1163:-1 1164:-1 1165:-1 1166:-1 1167:-1 1168:-1 1169:-1 1170:-1 1171:-1 1172:-1 1173:-1 1174:-1 1175:-1 1176:-0.875 1177:-1 1178:-0.818182 1179:-1 1180:-0.833333 1181:-1 1182:-0.833333 1183:-1 1184:-1 1185:-1 1186:-1 1187:-1 1189:-1 1190:-1 1191:-1 1192:-1 1193:-1 1194:-1 1195:-1 1196:-1 1197:-1 1198:-0.8 1199:-0.818182 1200:-0.8 1201:-1 1202:-1 1203:-1 1204:-1 1205:-1 1206:-1 1207:-1 1208:-1 1209:-1 1210:-1 1211:-1 1212:-1 1213:-1 1214:-1 1215:-1 
0 1.175098664384343e-05 0 1.822191045747163e-05 51:-0.848276 102:-0.974066 153:-0.966667 204:-0.702763 255:-0.532228 256:-1 257:-1 258:-1 259:-1 260:-1 261:-1 262:-1 263:-1 264:-1 265:-1 266:-1 267:-1 268:-1 269:-1 270:-1 271:-1 272:-1 273:-1 274:-1 275:-1 276:-1 277:-1 278:-1 279:-1 280:-1 281:-1 282:-1 283:-1 284:-1 285:-1 286:-1 287:-1 288:-1 289:-1 290:-1 291:-1 292:-1 293:-1 294:-1 295:-1 296:-1 297:-1 298:-0.909091 299:-0.727273 300:-0.304348 301:0.0909091 302:0.130435 303:0.130435 304:0.166667 305:0.259259 306:0.172414 307:0.37931 308:0.0666667 309:0.354839 310:0.5 311:0.5625 312:0.4 313:0.151515 314:-0.0909091 315:-0.030303 316:-0.0857143 317:-0.166667 318:-0.157895 319:-0.025641 320:-0.142857 321:-0.333333 322:0.0454545 323:0.0666667 324:-0.0769231 325:-0.266667 326:-0.333333 327:-0.363636 328:-0.396825 329:-0.368421 330:-0.4 331:-0.507246 332:-0.485714 333:-0.444444 334:-0.464789 335:-1 336:-1 337:-1 338:-1 339:-1 340:-1 341:-1 342:-1 343:-1 344:-1 345:-1 346:-1 347:-1 348:-1 349:-1 350:-1 351:-1 352:-1 353:-1 354:-1 355:-1 356:-1 357:-1 358:-1 359:-1 360:-1 361:-1 362:-1 363:-1 364:-1 365:-1 366:-1 367:-1 368:-1 369:-1 370:-1 371:-1 372:-1 373:-1 374:-1 389:-1 390:-1 391:-1 392:-1 393:-1 394:-1 395:-1 396:-1 397:-1 398:-1 399:-1 400:-1 401:-1 402:-1 403:-1 404:-1 405:-1 406:-1 407:-1 408:-1 409:-1 410:-1 411:-1 412:-1 413:-1 414:-1 415:-1 416:-1 417:-1 418:-1 419:-1 420:-1 421:-1 422:-1 423:-1 424:-1 425:-1 426:-1 427:-1 428:-1 429:-1 430:-1 431:-1 432:-1 433:-1 434:-1 435:-1 436:-1 437:-1 438:-1 439:-1 440:-1 441:-1 442:-1 443:-1 444:-1 445:-1 446:-1 447:-1 448:-1 449:-1 450:-1 451:-1 452:-1 453:-1 454:-1 455:-1 456:-1 457:-1 458:-1 459:-1 460:-0.85 461:-0.65 462:-0.368421 463:-0.243243 464:-0.157895 465:-0.105263 466:0.0526316 467:0.176471 468:0.3125 469:0.393939 470:0.230769 471:0.405405 472:0.444444 473:0.515152 474:0.757576 475:0.5625 476:0.655172 477:0.466667 478:0.333333 479:0.3125 480:0.25 481:0.3125 482:0.1875 483:0.354839 484:0.290323 485:0.517241 486:0.266667 487:0.225806 488:0.214286 489:0.133333 490:-0.0322581 492:-0.290323 493:-0.586207 494:-0.925926 495:-1 496:-1 497:-1 498:-1 499:-1 500:-1 501:-1 502:-1 503:-1 504:-1 505:-1 506:-1 507:-1 508:-1 509:-1 510:-1 511:-1 512:-1 513:-1 514:-1 515:-1 516:-1 517:-1 518:-1 519:-1 520:-1 521:-1 522:-1 523:-1 524:-1 525:-1 526:-1 527:-1 528:-1 529:-1 530:-1 531:-1 532:-1 533:-1 534:-1 535:-1 536:-1 537:-1 538:-0.925926 539:-0.8 540:-1 541:-1 542:-0.9375 543:-1 544:-0.833333 545:-0.842105 546:-0.818182 547:-0.913043 548:-0.8 549:-0.853659 550:-0.866667 551:-0.962264 552:-0.890909 553:-0.932203 554:-0.864407 555:-0.818182 556:-0.957447 557:-0.956522 558:-0.913043 559:-1 560:-1 561:-0.884615 562:-0.803922 563:-0.88 564:-0.923077 565:-0.916667 566:-1 567:-1 568:-1 569:-1 570:-1 571:-1 572:-1 573:-1 574:-1 575:-1 576:-1 577:-1 578:-1 579:-1 580:-1 581:-1 582:-1 583:-1 584:-1 585:-1 586:-1 587:-1 588:-1 589:-1 590:-1 591:-1 592:-1 593:-1 594:-1 595:-1 596:-1 597:-1 598:-1 599:-1 600:-1 601:-1 602:-1 603:-1 604:-1 605:-1 606:-1 607:-1 608:-1 609:-1 610:-1 611:-1 612:-1 613:-1 614:-1 629:-1 630:-1 631:-1 632:-1 633:-1 634:-1 635:-1 636:-1 637:-1 638:-1 639:-1 640:-1 641:-1 642:-1 643:-1 644:-1 645:-1 646:-1 647:-1 648:-1 649:-1 650:-1 651:-1 652:-1 653:-1 654:-1 655:-1 656:-1 657:-1 658:-1 659:-1 660:-1 661:-1 662:-1 663:-1 664:-1 665:-1 666:-1 667:-1 668:-1 669:-1 670:-1 671:-1 672:-1 673:-1 674:-1 675:-1 676:-1 677:-1 678:-1 679:-1 680:-1 681:-1 682:-1 683:-1 684:-1 685:-1 686:-1 687:-1 688:-1 689:-1 690:-1 691:-1 692:-1 693:-1 694:-1 695:-1 696:-1 697:-1 698:-1 699:-1 700:-0.947368 701:-0.944444 702:-0.939394 703:-1 704:-0.933333 705:-0.933333 706:-1 707:-0.870968 708:-0.818182 709:-0.757576 710:-0.942857 711:-1 712:-0.947368 713:-0.942857 714:-0.939394 715:-0.8125 716:-0.866667 717:-0.866667 718:-1 719:-0.925926 720:-0.777778 721:-0.68 722:-0.76 723:-0.52381 724:-0.809524 725:-0.9 726:-0.368421 727:-0.6 728:-0.6 729:-0.8 730:-0.894737 731:-1 732:-1 733:-1 734:-1 735:-1 736:-1 737:-1 738:-1 739:-1 740:-1 741:-1 742:-1 743:-1 744:-1 745:-1 746:-1 747:-1 748:-1 749:-1 750:-1 751:-1 752:-1 753:-1 754:-1 755:-1 756:-1 757:-1 758:-1 777:-1 779:-1 780:-0.5 781:-0.666667 782:-1 783:-1 784:-1 785:-1 786:-0.666667 787:-0.666667 788:-0.142857 789:-1 790:-1 791:-0.714286 792:-0.666667 793:-1 794:-1 795:-1 796:-1 797:-1 798:-1 799:-1 800:-1 801:-0.75 802:-1 803:-1 804:-1 805:-1 806:-1 807:-1 808:-1 809:-1 810:-1 811:-1 812:-1 813:-1 814:-1 815:-1 816:-1 817:-1 818:-1 819:-1 820:-1 821:-1 822:-1 823:-1 824:-1 825:-1 826:-1 827:-1 828:-1 829:-1 830:-1 831:-1 832:-1 833:-1 834:-1 835:-1 836:-1 837:-1 838:-1 839:-1 840:-1 841:-1 842:-1 843:-1 844:-1 845:-1 846:-1 847:-1 848:-1 849:-1 850:-1 851:-1 852:-1 853:-1 880:-1 881:-1 882:-1 883:-1 884:-1 885:-1 886:-1 887:-1 888:-1 889:-1 890:-1 891:-1 892:-1 893:-1 894:-1 895:-1 896:-1 897:-1 898:-1 899:-1 900:-1 901:-1 902:-1 903:-1 904:-1 905:-1 906:-1 907:-1 908:-1 909:-1 910:-1 911:-1 912:-1 913:-1 914:-1 915:-1 916:-1 917:-1 918:-1 919:-1 920:-1 921:-1 922:-1 923:-1 924:-1 925:-1 926:-1 927:-1 928:-1 929:-1 930:-1 931:-1 932:-1 933:-1 934:-1 935:-1 936:-1 937:-1 938:-1 939:-1 940:-1 941:-1 942:-1 943:-1 944:-1 945:-1 946:-1 947:-1 948:-1 949:-0.866667 950:-0.846154 951:-0.857143 952:-1 953:-1 954:-1 955:-1 956:-0.846154 957:-0.846154 958:-0.666667 959:-1 960:-0.8 961:-0.818182 962:-0.857143 963:-1 964:-1 965:-0.6 966:-1 967:-1 968:-1 969:-1 970:-1 971:-1 972:-1 973:-1 974:-1 975:-1 976:-1 977:-1 978:-1 979:-1 980:-1 981:-1 982:-1 983:-1 984:-1 985:-1 986:-1 987:-1 988:-1 989:-1 990:-1 991:-1 992:-1 994:-1 995:-1 997:-1 998:-1 1023:-1 1024:-1 1025:-1 1026:-1 1028:1 1029:-1 1033:-1 1034:-1 1035:-1 1036:-1 1037:-1 1038:-1 1039:-1 1040:-1 1041:-1 1042:-1 1043:-1 1044:-1 1045:-1 1046:-1 1047:-1 1048:-1 1049:-1 1050:-1 1051:-1 1052:-1 1053:-1 1054:-1 1055:-1 1056:-1 1057:-1 1058:-1 1059:-1 1060:-1 1061:-1 1062:-1 1063:-1 1064:-1 1065:-1 1066:-1 1067:-1 1068:-1 1069:-1 1070:-1 1071:-1 1072:-1 1073:-1 1074:-1 1075:-1 1076:-1 1077:-1 1078:-1 1079:-1 1080:-1 1081:-1 1082:-1 1083:-1 1084:-1 1085:-1 1086:-1 1087:-1 1088:-1 1089:-1 1090:-1 1120:-1 1121:-1 1122:-1 1123:-1 1125:-1 1126:-1 1128:-1 1129:-1 1130:-1 1131:-1 1132:-1 1133:-1 1134:-1 1135:-1 1136:-1 1137:-1 1138:-1 1139:-1 1140:-1 1141:-1 1142:-1 1143:-1 1144:-1 1145:-1 1146:-1 1147:-1 1148:-1 1149:-1 1150:-1 1151:-1 1152:-1 1153:-1 1154:-1 1155:-1 1156:-1 1157:-1 1158:-1 1159:-1 1160:-1 1161:-1 1162:-1 1163:-1 1164:-1 1165:-1 1166:-1 1167:-1 1168:-1 1169:-1 1170:-1 1171:-1 1172:-1 1173:-1 1174:-1 1175:-1 1176:-1 1177:-1 1178:-1 1179:-1 1180:-1 1181:-1 1182:-1 1183:-1 1184:-1 1185:-1 1186:-1 1187:-1 1188:-1 1189:-1 1190:-1 1191:-1 1192:-1 1193:-1 1194:-1 1195:-1 1196:-1 1197:-1 1198:-1 1199:-1 1200:-1 1201:-1 1202:-0.75 1203:-1 1204:-1 1205:-1 1206:-1 1207:-1 1208:-1 1209:-1 1210:-1 1211:-1 1212:-1 1213:-1 1214:-1 1215:-1 
3.269591246028829e-05 8.310474165902907e-06 0 0 51:-0.983142 102:-0.97254 153:-0.751515 204:-0.508588 255:-0.562922 256:-1 257:-1 258:-1 259:-1 260:-1 261:-1 262:-1 263:-1 264:-1 265:-1 266:-1 267:-1 268:-1 269:-1 270:-1 271:-1 272:-1 273:-1 274:-1 275:-1 276:-1 277:-1 278:-1 279:-1 280:-1 281:-1 282:-1 283:-1 284:-1 285:-1 286:-1 287:-1 288:-1 289:-1 290:-1 291:-1 292:-1 293:-1 294:-1 295:-1 296:-1 297:-1 298:-0.909091 299:-0.727273 300:-0.304348 301:0.0909091 302:0.130435 303:0.130435 304:0.333333 305:0.259259 306:0.310345 307:0.37931 308:0.333333 309:0.354839 310:0.1875 311:0.25 312:0.2 313:0.151515 314:0.0909091 315:0.0909091 316:-0.257143 317:-0.222222 318:-0.315789 319:-0.230769 320:-0.190476 321:-0.333333 322:0.136364 323:0.0666667 324:-0.115385 325:-0.3 326:-0.575758 327:-0.575758 328:-0.52381 329:-0.508772 330:-0.5 331:-0.565217 332:-1 333:-1 334:-1 335:-1 336:-1 337:-1 338:-1 339:-1 340:-1 341:-1 342:-1 343:-1 344:-1 345:-1 346:-1 347:-1 348:-1 349:-1 350:-1 351:-1 352:-1 353:-1 354:-1 355:-1 356:-1 357:-1 358:-1 359:-1 360:-1 361:-1 362:-1 363:-1 364:-1 365:-1 366:-1 367:-1 368:-1 369:-1 370:-1 371:-1 372:-1 373:-1 374:-1 389:-1 390:-1 391:-1 392:-1 393:-1 394:-1 395:-1 396:-1 397:-1 398:-1 399:-1 400:-1 401:-1 402:-1 403:-1 404:-1 405:-1 406:-1 407:-1 408:-1 409:-1 410:-1 411:-1 412:-1 413:-1 414:-1 415:-1 416:-1 417:-1 418:-1 419:-1 420:-1 421:-1 422:-1 423:-1 424:-1 425:-1 426:-1 427:-1 428:-1 429:-1 430:-1 431:-1 432:-1 433:-1 434:-1 435:-1 436:-1 437:-1 438:-1 439:-1 440:-1 441:-1 442:-1 443:-1 444:-1 445:-1 446:-1 447:-1 448:-1 449:-1 450:-1 451:-1 452:-1 453:-1 454:-1 455:-1 456:-1 457:-1 458:-1 459:-1 460:-0.85 461:-0.65 462:-0.368421 463:-0.189189 464:-0.157895 465:-0.0526316 466:0.0526316 467:0.294118 468:0.5 469:0.393939 470:-0.025641 471:0.135135 472:0.166667 473:0.151515 474:0.0909091 475:0.125 476:0.37931 477:0.333333 479:-0.125 481:0.125 482:-0.125 483:-0.0322581 484:0.225806 485:0.37931 486:0.4 487:0.290323 488:0.285714 489:0.133333 490:-0.354839 491:-0.6 492:-0.870968 493:-1 494:-1 495:-1 496:-1 497:-1 498:-1 499:-1 500:-1 501:-1 502:-1 503:-1 504:-1 505:-1 506:-1 507:-1 508:-1 509:-1 510:-1 511:-1 512:-1 513:-1 514:-1 515:-1 516:-1 517:-1 518:-1 519:-1 520:-1 521:-1 522:-1 523:-1 524:-1 525:-1 526:-1 527:-1 528:-1 529:-1 530:-1 531:-1 532:-1 533:-1 534:-1 535:-1 536:-1 537:-1 538:-0.925926 539:-0.8 540:-1 541:-1 542:-0.8125 543:-0.941176 544:-0.833333 545:-0.842105 546:-0.863636 547:-0.869565 548:-0.75 549:-0.853659 550:-0.911111 551:-0.924528 552:-0.963636 553:-0.966102 554:-0.966102 555:-0.963636 556:-0.87234 557:-0.956522 558:-0.913043 559:-1 560:-0.960784 561:-0.884615 562:-0.921569 563:-0.92 564:-1 565:-1 566:-1 567:-1 568:-1 569:-1 570:-1 571:-1 572:-1 573:-1 574:-1 575:-1 576:-1 577:-1 578:-1 579:-1 580:-1 581:-1 582:-1 583:-1 584:-1 585:-1 586:-1 587:-1 588:-1 589:-1 590:-1 591:-1 592:-1 593:-1 594:-1 595:-1 596:-1 597:-1 598:-1 599:-1 600:-1 601:-1 602:-1 603:-1 604:-1 605:-1 606:-1 607:-1 608:-1 609:-1 610:-1 611:-1 612:-1 613:-1 614:-1 629:-1 630:-1 631:-1 632:-1 633:-1 634:-1 635:-1 636:-1 637:-1 638:-1 639:-1 640:-1 641:-1 642:-1 643:-1 644:-1 645:-1 646:-1 647:-1 648:-1 649:-1 650:-1 651:-1 652:-1 653:-1 654:-1 655:-1 656:-1 657:-1 658:-1 659:-1 660:-1 661:-1 662:-1 663:-1 664:-1 665:-1 666:-1 667:-1 668:-1 669:-1 670:-1 671:-1 672:-1 673:-1 674:-1 675:-1 676:-1 677:-1 678:-1 679:-1 680:-1 681:-1 682:-1 683:-1 684:-1 685:-1 686:-1 687:-1 688:-1 689:-1 690:-1 691:-1 692:-1 693:-1 694:-1 695:-1 696:-1 697:-1 698:-1 699:-1 700:-0.947368 701:-0.944444 702:-0.939394 703:-0.875 704:-0.8 705:-0.866667 706:-0.935484 707:-0.870968 708:-0.818182 709:-1 710:-0.942857 711:-1 712:-1 713:-0.885714 714:-0.939394 715:-0.875 716:-0.733333 717:-0.8 718:-0.925926 719:-0.925926 720:-0.925926 721:-0.92 722:-0.76 723:-0.52381 724:-0.809524 725:-0.7 726:-0.894737 727:-0.9 728:-0.8 729:-1 730:-1 731:-1 732:-1 733:-1 734:-1 735:-1 736:-1 737:-1 738:-1 739:-1 740:-1 741:-1 742:-1 743:-1 744:-1 745:-1 746:-1 747:-1 748:-1 749:-1 750:-1 751:-1 752:-1 753:-1 754:-1 755:-1 756:-1 757:-1 758:-1 777:-1 779:-1 780:-0.5 781:-0.666667 782:-1 783:-1 784:-1 785:-1 786:-0.666667 787:-0.666667 788:-0.714286 789:-1 790:-1 791:-1 792:-1 793:-1 794:-1 795:-1 796:-1 797:-1 798:-1 799:-1 800:-1 801:-0.75 802:-1 803:-1 804:-1 805:-1 806:-1 807:-1 808:-1 809:-1 810:-1 811:-1 812:-1 813:-1 814:-1 815:-1 816:-1 817:-1 818:-1 819:-1 820:-1 821:-1 822:-1 823:-1 824:-1 825:-1 826:-1 827:-1 828:-1 829:-1 830:-1 831:-1 832:-1 833:-1 834:-1 835:-1 836:-1 837:-1 838:-1 839:-1 840:-1 841:-1 842:-1 843:-1 844:-1 845:-1 846:-1 847:-1 848:-1 849:-1 850:-1 851:-1 852:-1 853:-1 880:-1 881:-1 882:-1 883:-1 884:-1 885:-1 886:-1 887:-1 888:-1 889:-1 890:-1 891:-1 892:-1 893:-1 894:-1 895:-1 896:-1 897:-1 898:-1 899:-1 900:-1 901:-1 902:-1 903:-1 904:-1 905:-1 906:-1 907:-1 908:-1 909:-1 910:-1 911:-1 912:-1 913:-1 914:-1 915:-1 916:-1 917:-1 918:-1 919:-1 920:-1 921:-1 922:-1 923:-1 924:-1 925:-1 926:-1 927:-1 928:-1 929:-1 930:-1 931:-1 932:-1 933:-1 934:-1 935:-1 936:-1 937:-1 938:-1 939:-1 940:-1 941:-1 942:-1 943:-1 944:-1 945:-1 946:-1 947:-1 948:-1 949:-0.866667 950:-0.846154 951:-0.857143 952:-1 953:-1 954:-1 955:-1 956:-1 957:-1 958:-0.833333 959:-1 960:-0.8 961:-0.818182 962:-0.714286 963:-1 964:-1 965:-1 966:-1 967:-1 968:-1 969:-1 970:-1 971:-1 972:-1 973:-1 974:-1 975:-1 976:-1 977:-1 978:-1 979:-1 980:-1 981:-1 982:-1 983:-1 984:-1 985:-1 986:-1 987:-1 988:-1 989:-1 990:-1 991:-1 992:-1 994:-1 995:-1 997:-1 998:-1 1023:1 1024:1 1026:-1 1028:1 1029:-1 1033:-1 1034:-1 1035:-1 1036:-1 1037:-1 1038:-1 1039:-1 1040:-1 1041:-0.5 1042:-1 1043:-1 1044:-1 1045:-1 1046:-1 1047:-1 1048:-1 1049:-1 1050:-1 1051:-1 1052:-1 1053:-1 1054:-1 1055:-1 1056:-1 1057:-1 1058:-1 1059:-1 1060:-1 1061:-1 1062:-1 1063:-1 1064:-1 1065:-1 1066:-1 1067:-1 1068:-1 1069:-1 1070:-1 1071:-1 1072:-1 1073:-1 1074:-1 1075:-1 1076:-1 1077:-1 1078:-1 1079:-1 1080:-1 1081:-1 1082:-1 1083:-1 1084:-1 1085:-1 1086:-1 1087:-1 1088:-1 1089:-1 1090:-1 1120:-1 1121:-1 1122:-1 1123:-1 1125:-1 1126:-1 1128:-1 1129:-1 1130:-1 1131:-1 1132:-1 1133:-1 1134:-1 1135:-1 1136:-1 1137:-1 1138:-1 1139:-1 1140:-1 1141:-1 1142:-1 1143:-1 1144:-1 1145:-1 1146:-1 1147:-1 1148:-1 1149:-1 1150:-1 1151:-1 1152:-1 1153:-1 1154:-1 1155:-1 1156:-1 1157:-1 1158:-1 1159:-1 1160:-1 1161:-1 1162:-1 1163:-1 1164:-1 1165:-1 1166:-1 1167:-1 1168:-1 1169:-1 1170:-1 1171:-1 1172:-1 1173:-1 1174:-1 1175:-1 1176:-1 1177:-1 1178:-1 1179:-1 1180:-1 1181:-1 1182:-1 1183:-1 1184:-1 1185:-1 1186:-0.75 1187:-1 1188:-1 1189:-1 1190:-1 1191:-1 1192:-1 1193:-1 1194:-1 1195:-1 1196:-0.777778 1197:-0.8 1198:-0.8 1199:-0.636364 1200:-0.8 1201:-1 1202:-1 1203:-1 1204:-1 1205:-1 1206:-1 1207:-1 1208:-1 1209:-1 1210:-1 1211:-1 1212:-1 1213:-1 1214:-1 1215:-1 
5.512405897733439e-05 2.998202759761878e-06 0 4.380224745158626e-06 51:-0.972414 102:-0.810831 153:-0.584848 204:-0.507095 255:-0.790055 256:-1 257:-1 258:-1 259:-1 260:-1 261:-1 262:-1 263:-1 264:-1 265:-1 266:-1 267:-1 268:-1 269:-1 270:-1 271:-1 272:-1 273:-1 274:-1 275:-1 276:-1 277:-1 278:-1 279:-1 280:-1 281:-1 282:-1 283:-1 284:-1 285:-1 286:-1 287:-1 288:-1 289:-1 290:-1 291:-1 292:-1 293:-1 294:-1 295:-1 296:-1 297:-1 298:-0.909091 299:-0.727273 300:-0.304348 301:0.0909091 302:-0.0434783 303:0.0434783 304:0.416667 305:0.407407 306:0.37931 307:0.37931 308:0.333333 309:0.419355 310:0.4375 311:0.5625 312:0.466667 313:0.515152 314:0.393939 315:0.212121 316:0.371429 317:0.333333 318:0.157895 319:0.282051 320:0.238095 321:0.047619 322:0.0909091 323:0.0666667 325:-0.4 326:-0.424242 327:-0.393939 328:-0.333333 329:-0.298246 330:-0.333333 331:-0.449275 332:-0.514286 333:-0.555556 334:-0.633803 335:-0.57377 336:-0.623188 337:-0.617647 338:-0.606061 339:-1 340:-1 341:-1 342:-1 343:-1 344:-1 345:-1 346:-1 347:-1 348:-1 349:-1 350:-1 351:-1 352:-1 353:-1 354:-1 355:-1 356:-1 357:-1 358:-1 359:-1 360:-1 361:-1 362:-1 363:-1 364:-1 365:-1 366:-1 367:-1 368:-1 369:-1 370:-1 371:-1 372:-1 373:-1 374:-1 389:-1 390:-1 391:-1 392:-1 393:-1 394:-1 395:-1 396:-1 397:-1 398:-1 399:-1 400:-1 401:-1 402:-1 403:-1 404:-1 405:-1 406:-1 407:-1 408:-1 409:-1 410:-1 411:-1 412:-1 413:-1 414:-1 415:-1 416:-1 417:-1 418:-1 419:-1 420:-1 421:-1 422:-1 423:-1 424:-1 425:-1 426:-1 427:-1 428:-1 429:-1 430:-1 431:-1 432:-1 433:-1 434:-1 435:-1 436:-1 437:-1 438:-1 439:-1 440:-1 441:-1 442:-1 443:-1 444:-1 445:-1 446:-1 447:-1 448:-1 449:-1 450:-1 451:-1 452:-1 453:-1 454:-1 455:-1 456:-1 457:-1 458:-1 459:-1 460:-0.8 461:-0.65 462:-0.315789 463:-0.297297 464:-0.315789 465:-0.157895 467:0.176471 468:0.3125 469:0.393939 470:0.025641 471:0.405405 472:0.444444 473:0.393939 474:0.454545 475:0.5 476:0.862069 477:1 478:0.666667 479:0.625 480:0.75 481:0.75 482:0.625 483:1 484:0.806452 485:0.931034 486:0.6 487:0.290323 488:0.5 489:0.333333 490:0.225806 491:0.2 492:0.0322581 493:0.172414 494:0.185185 495:0.304348 496:-1 497:-1 498:-1 499:-1 500:-1 501:-1 502:-1 503:-1 504:-1 505:-1 506:-1 507:-1 508:-1 509:-1 510:-1 511:-1 512:-1 513:-1 514:-1 515:-1 516:-1 517:-1 518:-1 519:-1 520:-1 521:-1 522:-1 523:-1 524:-1 525:-1 526:-1 527:-1 528:-1 529:-1 530:-1 531:-1 532:-1 533:-1 534:-1 535:-1 536:-1 537:-1 538:-0.851852 539:-0.8 540:-0.875 541:-0.935484 542:-0.875 543:-0.941176 544:-1 545:-0.947368 546:-0.909091 547:-0.869565 548:-0.9 549:-0.902439 550:-0.866667 551:-0.962264 552:-0.890909 553:-0.932203 554:-0.898305 555:-0.854545 556:-0.914894 557:-0.869565 558:-0.826087 559:-0.958333 560:-0.960784 561:-0.807692 562:-0.882353 563:-0.88 564:-0.961538 565:-0.666667 566:-0.733333 567:-0.857143 568:-0.909091 569:-0.95 570:-0.957447 571:-0.921569 572:-1 573:-1 574:-1 575:-1 576:-1 577:-1 578:-1 579:-1 580:-1 581:-1 582:-1 583:-1 584:-1 585:-1 586:-1 587:-1 588:-1 589:-1 590:-1 591:-1 592:-1 593:-1 594:-1 595:-1 596:-1 597:-1 598:-1 599:-1 600:-1 601:-1 602:-1 603:-1 604:-1 605:-1 606:-1 607:-1 608:-1 609:-1 610:-1 611:-1 612:-1 613:-1 614:-1 629:-1 630:-1 631:-1 632:-1 633:-1 634:-1 635:-1 636:-1 637:-1 638:-1 639:-1 640:-1 641:-1 642:-1 643:-1 644:-1 645:-1 646:-1 647:-1 648:-1 649:-1 650:-1 651:-1 652:-1 653:-1 654:-1 655:-1 656:-1 657:-1 658:-1 659:-1 660:-1 661:-1 662:-1 663:-1 664:-1 665:-1 666:-1 667:-1 668:-1 669:-1 670:-1 671:-1 672:-1 673:-1 674:-1 675:-1 676:-1 677:-1 678:-1 679:-1 680:-1 681:-1 682:-1 683:-1 684:-1 685:-1 686:-1 687:-1 688:-1 689:-1 690:-1 691:-1 692:-1 693:-1 694:-1 695:-1 696:-1 697:-1 698:-1 699:-1 700:-1 701:-0.944444 702:-1 703:-0.875 704:-0.8 705:-0.866667 706:-0.935484 707:-0.870968 708:-0.818182 709:-0.878788 710:-0.657143 711:-0.837838 712:-0.789474 713:-0.542857 714:-0.575758 715:-0.5625 716:-0.666667 717:-0.933333 718:-0.777778 719:-0.925926 720:-0.925926 721:-0.92 722:-0.76 723:-0.809524 724:-0.904762 725:-0.9 726:-0.894737 727:-0.9 728:-0.8 729:-0.8 730:-0.789474 731:-0.9 732:-0.684211 733:-0.894737 734:-1 735:-1 736:-1 737:-1 738:-1 739:-1 740:-1 741:-1 742:-1 743:-1 744:-1 745:-1 746:-1 747:-1 748:-1 749:-1 750:-1 751:-1 752:-1 753:-1 754:-1 755:-1 756:-1 757:-1 758:-1 777:-1 778:-1 779:-1 780:-1 781:-1 782:-1 784:-0.333333 785:-0.6 786:-1 787:-1 788:-0.714286 789:-1 790:-1 791:-1 792:-0.666667 793:-1 794:-1 795:-0.714286 796:-0.818182 797:-1 798:-1 799:-1 800:-1 801:-0.75 802:-1 803:-1 804:-1 805:-1 806:-1 807:-1 808:-1 809:-1 810:-1 811:-1 812:-1 813:-1 814:-1 815:-1 816:-1 817:-1 818:-1 819:-1 820:-1 821:-1 822:-1 823:-1 824:-1 825:-1 826:-1 827:-1 828:-1 829:-1 830:-1 831:-1 832:-1 833:-1 834:-1 835:-1 836:-1 837:-1 838:-1 839:-1 840:-1 841:-1 842:-1 843:-1 844:-1 845:-1 846:-1 847:-1 848:-1 849:-1 850:-1 851:-1 852:-1 853:-1 880:-1 881:-1 882:-1 883:-1 884:-1 885:-1 886:-1 887:-1 888:-1 889:-1 890:-1 891:-1 892:-1 893:-1 894:-1 895:-1 896:-1 897:-1 898:-1 899:-1 900:-1 901:-1 902:-1 903:-1 904:-1 905:-1 906:-1 907:-1 908:-1 909:-1 910:-1 911:-1 912:-1 913:-1 914:-1 915:-1 916:-1 917:-1 918:-1 919:-1 920:-1 921:-1 922:-1 923:-1 924:-1 925:-1 926:-1 927:-1 928:-1 929:-1 930:-1 931:-1 932:-1 933:-1 934:-1 935:-1 936:-1 937:-1 938:-1 939:-1 940:-1 941:-1 942:-1 943:-1 944:-1 945:-1 946:-0.875 947:-1 948:-1 949:-1 950:-1 951:-1 952:-1 953:-1 954:-1 955:-1 956:-0.846154 957:-0.846154 958:-0.833333 959:-0.666667 960:-0.8 961:-1 962:-1 963:-1 964:-0.777778 965:-1 966:-0.75 967:-0.8 968:-1 969:-1 970:-1 971:-1 972:-1 973:-1 974:-1 975:-1 976:-1 977:-1 978:-1 979:-1 980:-1 981:-1 982:-1 983:-1 984:-1 985:-1 986:-1 987:-1 988:-1 989:-1 990:-1 991:-1 992:-1 994:-1 995:-1 997:-1 998:-1 1023:-1 1024:-1 1025:-1 1026:-1 1028:-1 1029:-1 1033:-1 1034:-1 1035:-1 1036:-1 1037:-1 1038:-1 1039:-1 1040:-1 1041:-1 1042:-1 1043:-1 1044:-1 1045:-1 1046:-1 1047:-1 1048:-1 1049:-1 1050:-1 1051:-1 1052:-1 1053:-1 1054:-1 1055:-1 1056:-1 1057:-1 1058:-1 1059:-1 1060:-1 1061:-1 1062:-1 1063:-1 1064:-1 1065:-1 1066:-1 1067:-1 1068:-1 1069:-1 1070:-1 1071:-1 1072:-1 1073:-1 1074:-1 1075:-1 1076:-1 1077:-1 1078:-1 1079:-1 1080:-1 1081:-1 1082:-1 1083:-1 1084:-1 1085:-1 1086:-1 1087:-1 1088:-1 1089:-1 1090:-1 1120:-1 1121:-1 1122:-1 1123:-1 1125:-1 1126:-1 1128:-1 1129:-1 1130:-1 1131:-1 1132:-1 1133:-1 1134:-1 1135:-1 1136:-1 1137:-1 1138:-1 1139:-1 1140:-1 1141:-1 1142:-1 1143:-1 1144:-1 1145:-1 1146:-1 1147:-1 1148:-1 1149:-1 1150:-1 1151:-1 1152:-1 1153:-1 1154:-1 1155:-1 1156:-1 1157:-1 1158:-1 1159:-1 1160:-1 1161:-1 1162:-1 1163:-1 1164:-1 1165:-1 1166:-1 1167:-1 1168:-1 1169:-1 1170:-1 1171:-1 1172:-1 1173:-1 1174:-1 1175:-1 1176:-1 1177:-1 1178:-1 1179:-1 1180:-1 1181:-1 1182:-1 1183:-1 1184:-1 1185:-1 1186:-1 1187:-1 1188:-1 1189:-1 1190:-1 1191:-1 1192:-1 1193:-1 1194:-1 1195:-1 1196:-1 1197:-1 1198:-1 1199:-1 1200:-1 1201:-1 1202:-1 1203:-1 1204:-1 1205:-1 1206:-1 1207:-1 1208:-1 1209:-1 1210:-1 1211:-1 1212:-1 1213:-1 1214:-1 1215:-1 
